{"learner":{"attributes":{"scikit_learn":"{\"_estimator_type\": \"classifier\"}"},"feature_names":["Time","V1","V2","V3","V4","V5","V6","V7","V8","V9","V10","V11","V12","V13","V14","V15","V16","V17","V18","V19","V20","V21","V22","V23","V24","V25","V26","V27","V28","Amount"],"feature_types":["float","float","float","float","float","float","float","float","float","float","float","float","float","float","float","float","float","float","float","float","float","float","float","float","float","float","float","float","float","float"],"gradient_booster":{"model":{"gbtree_model_param":{"num_parallel_tree":"1","num_trees":"100"},"iteration_indptr":[0,1,2,3,4,5,6,7,8,9,10,11,12,13,14,15,16,17,18,19,20,21,22,23,24,25,26,27,28,29,30,31,32,33,34,35,36,37,38,39,40,41,42,43,44,45,46,47,48,49,50,51,52,53,54,55,56,57,58,59,60,61,62,63,64,65,66,67,68,69,70,71,72,73,74,75,76,77,78,79,80,81,82,83,84,85,86,87,88,89,90,91,92,93,94,95,96,97,98,99,100],"tree_info":[0,0,0,0,0,0,0,0,0,0,0,0,0,0,0,0,0,0,0,0,0,0,0,0,0,0,0,0,0,0,0,0,0,0,0,0,0,0,0,0,0,0,0,0,0,0,0,0,0,0,0,0,0,0,0,0,0,0,0,0,0,0,0,0,0,0,0,0,0,0,0,0,0,0,0,0,0,0,0,0,0,0,0,0,0,0,0,0,0,0,0,0,0,0,0,0,0,0,0,0],"trees":[{"base_weights":[2.6366476E-2,1.4519519E0,-2.4786673E0,1.4758316E0,-2.094802E0,-8.6813194E-1,-2.699715E0,1.4870782E0,-2.6690521E0,1.311761E0,-2.654854E0,-2.2474337E-1,-2.7886145E0,1.1354103E0,-2.7473896E0,1.4923469E0,-2.7671554E0,4.5353535E-1,-2.9237136E-1,-1.8924312E-1,1.4800696E-1,-2.9279462E-1,-5.7913005E-1,-2.2529666E0,2.8037181E-1,-4.8051235E-1,-2.9216044E0,1.5079656E-1,-2.8357798E-1,-2.8430073E0,-1.8732425E0,1.4972931E0,-2.1951152E-1,6.804473E-2,-2.8974387E-1,1.3378744E-1,-2.0383814E-1,1.0442568E0,-2.7498695E-1,-2.8189938E0,-2.033639E-1,7.326316E-1,-1.2968491E0,1.278061E0,-2.805509E-1,-1.1663966E0,-2.944007E-1,-2.8846684E0,-2.1897635E0,-4.9500746E-1,-2.6051643E0,-8.1516825E-2,1.4998335E-1,1.4835533E-1,-2.6897296E-1,1.4315413E-1,-1.8924312E-1,-2.8821511E-2,-2.9399273E-1,-2.8585562E-1,9.196362E-2,-2.8403044E-1,8.395492E-2,-2.893606E-1,-3.762989E-2,-1.5578094E-1,1.4564233E-1,-2.5661367E-1,1.2128278E-1,2.9213998E-2,-2.8883862E-1,-2.9143685E-1,-7.9200976E-2,-2.4598269E-1,5.233234E-2,-2.701149E-1,4.9952924E-2],"categories":[],"categories_nodes":[],"categories_segments":[],"categories_sizes":[],"default_left":[0,0,0,0,0,0,0,0,0,0,0,0,0,0,0,0,0,0,0,0,0,0,0,0,0,0,0,0,0,0,0,0,0,0,0,0,0,0,0,0,0,0,0,0,0,0,0,0,0,0,0,0,0,0,0,0,0,0,0,0,0,0,0,0,0,0,0,0,0,0,0,0,0,0,0,0,0],"id":0,"left_children":[1,3,5,7,9,11,13,15,17,19,21,23,25,27,29,31,33,35,-1,-1,-1,-1,37,39,41,43,45,-1,-1,47,49,51,53,-1,-1,-1,-1,55,-1,57,59,61,63,65,-1,67,-1,69,71,73,75,-1,-1,-1,-1,-1,-1,-1,-1,-1,-1,-1,-1,-1,-1,-1,-1,-1,-1,-1,-1,-1,-1,-1,-1,-1,-1],"loss_changes":[2.75636E5,4.1693203E3,9.963578E3,2.2817266E3,6.31911E2,4.1756934E3,4.503672E3,1.096375E3,1.0675427E2,2.8242844E1,1.5884839E2,2.5955098E3,2.589214E2,4.5247232E2,2.0268281E3,4.124375E2,2.9202515E1,2.6665714E1,0E0,0E0,0E0,0E0,1.233036E2,5.854436E2,1.4480692E3,1.9739127E2,2.8089355E1,0E0,0E0,5.900781E2,2.4198936E3,2.863125E2,5.9758295E2,0E0,0E0,0E0,0E0,2.577142E1,0E0,1.20271484E2,3.3178406E2,6.04919E2,6.6396936E2,1.6267033E1,0E0,4.227507E1,0E0,2.4409375E2,1.3325112E3,1.6694739E3,4.6844238E2,0E0,0E0,0E0,0E0,0E0,0E0,0E0,0E0,0E0,0E0,0E0,0E0,0E0,0E0,0E0,0E0,0E0,0E0,0E0,0E0,0E0,0E0,0E0,0E0,0E0,0E0],"parents":[2147483647,0,0,1,1,2,2,3,3,4,4,5,5,6,6,7,7,8,8,9,9,10,10,11,11,12,12,13,13,14,14,15,15,16,16,17,17,22,22,23,23,24,24,25,25,26,26,29,29,30,30,31,31,32,32,37,37,39,39,40,40,41,41,42,42,43,43,45,45,47,47,48,48,49,49,50,50],"right_children":[2,4,6,8,10,12,14,16,18,20,22,24,26,28,30,32,34,36,-1,-1,-1,-1,38,40,42,44,46,-1,-1,48,50,52,54,-1,-1,-1,-1,56,-1,58,60,62,64,66,-1,68,-1,70,72,74,76,-1,-1,-1,-1,-1,-1,-1,-1,-1,-1,-1,-1,-1,-1,-1,-1,-1,-1,-1,-1,-1,-1,-1,-1,-1,-1],"split_conditions":[-1.5418898E0,7.9090215E-2,-8.32878E-1,1.12958E0,-2.0609484E0,1.2027122E0,-7.6090813E0,1.1009372E0,-1.0198901E0,1.7172713E0,8.741538E-1,-3.051419E-1,-1.3875822E0,-1.5518246E0,1.7668601E0,1.2001795E0,-1.2875051E0,-9.654721E-1,-2.9237136E-1,-1.8924312E-1,1.4800696E-1,-2.9279462E-1,-3.5593715E-1,1.174751E0,1.0735575E0,-6.018511E-1,-2.111637E0,1.5079656E-1,-2.8357798E-1,6.959548E-1,2.430765E-2,-3.600703E-1,-2.2876275E0,6.804473E-2,-2.8974387E-1,1.3378744E-1,-2.0383814E-1,-7.334939E-1,-2.7498695E-1,-1.7132585E0,3.2372147E-1,-9.8184097E-1,-5.56219E-2,-1.4483966E0,-2.805509E-1,1.0863483E0,-2.944007E-1,-3.6429436E0,4.759107E-1,-4.9104953E-1,2.1312854E0,-8.1516825E-2,1.4998335E-1,1.4835533E-1,-2.6897296E-1,1.4315413E-1,-1.8924312E-1,-2.8821511E-2,-2.9399273E-1,-2.8585562E-1,9.196362E-2,-2.8403044E-1,8.395492E-2,-2.893606E-1,-3.762989E-2,-1.5578094E-1,1.4564233E-1,-2.5661367E-1,1.2128278E-1,2.9213998E-2,-2.8883862E-1,-2.9143685E-1,-7.9200976E-2,-2.4598269E-1,5.233234E-2,-2.701149E-1,4.9952924E-2],"split_indices":[14,12,14,10,10,3,7,3,9,4,26,4,10,16,4,1,17,3,0,0,0,0,24,19,1,17,19,0,0,20,10,11,10,0,0,0,0,10,0,10,11,11,8,4,0,2,0,6,22,5,7,0,0,0,0,0,0,0,0,0,0,0,0,0,0,0,0,0,0,0,0,0,0,0,0,0,0],"split_type":[0,0,0,0,0,0,0,0,0,0,0,0,0,0,0,0,0,0,0,0,0,0,0,0,0,0,0,0,0,0,0,0,0,0,0,0,0,0,0,0,0,0,0,0,0,0,0,0,0,0,0,0,0,0,0,0,0,0,0,0,0,0,0,0,0,0,0,0,0,0,0,0,0,0,0,0,0],"sum_hessian":[7.718232E4,4.9189547E4,2.7992775E4,4.8861156E4,3.283906E2,3.3789485E3,2.4613826E4,4.8729574E4,1.3158038E2,4.6176422E1,2.8221417E2,2.5318577E3,8.4709076E2,3.0194E2,2.4311887E4,4.866995E4,5.9625866E1,9.862926E0,1.2171746E2,1.7932591E0,4.4383163E1,2.4903886E2,3.3175293E1,5.0412997E2,2.0277278E3,4.640058E1,8.006902E2,2.7661023E2,2.5329786E1,2.191273E4,2.3991565E3,4.852985E4,1.4009837E2,2.0174165E0,5.760845E1,7.6213512E0,2.2415738E0,1.9277536E1,1.38977585E1,3.9474118E2,1.0938881E2,1.5762748E3,4.51453E2,2.667473E1,1.9725851E1,1.0759555E1,7.8993066E2,2.0595805E4,1.3169247E3,8.327447E2,1.5664119E3,5.2901146E1,4.847695E4,8.316239E1,5.6935978E1,1.7484276E1,1.7932591E0,1.815675E1,3.765844E2,3.205451E1,7.73343E1,4.5055637E1,1.5312191E3,1.6430737E2,2.8714563E2,1.1207869E0,2.5553944E1,6.724722E0,4.034833E0,2.398484E1,2.057182E4,8.6659247E2,4.503322E2,2.8378326E2,5.489614E2,1.519563E3,4.6848896E1],"tree_param":{"num_deleted":"0","num_feature":"30","num_nodes":"77","size_leaf_vector":"1"}},{"base_weights":[3.0221885E-2,1.3801507E0,-2.0845938E0,1.4046497E0,-1.6831894E0,-8.0662966E-1,-2.2650762E0,1.4160064E0,-2.1341069E0,1.2860662E0,-2.2282388E0,-2.3633304E-1,-2.3351278E0,1.0639724E0,-2.301802E0,1.4208887E0,-2.306349E0,-2.4431169E-1,-9.479878E-2,-1.7082098E-1,1.4169501E-1,-2.4417578E-1,-4.8643726E-1,-1.3542384E0,5.536763E-1,-4.4534546E-1,-2.4358757E0,1.4359744E-1,-2.3794515E-1,-2.3772676E0,-1.6219478E0,1.4327463E0,6.9808143E-1,6.4523235E-2,-2.4160762E-1,1.1983829E0,-2.2091821E-1,9.621766E-1,-2.336886E-1,-1.8448517E0,4.3528634E-1,1.0151699E0,-9.937978E-1,1.1776929E0,-2.3677135E-1,-1.1818897E0,-2.4513148E-1,-2.4109015E0,-1.8682559E0,9.8037414E-2,-2.0485244E0,-2.755507E-1,1.4336586E-1,-9.939793E-2,1.1515399E-1,1.7533883E-3,1.3270564E-1,1.3665782E-1,-1.7050923E-1,-5.627963E-3,-2.4821608E-1,-2.632757E-1,9.66774E-2,1.0808764E-1,-2.8080937E-1,4.6113838E-2,-1.7956738E-1,1.4078917E-1,-1.6253513E-1,-2.2396994E-1,1.15592696E-1,3.673735E-2,-2.4137776E-1,-2.511425E-1,-7.411441E-2,1.0445084E-1,-2.4986115E-1,-4.3039303E-2,-2.3097675E-1],"categories":[],"categories_nodes":[],"categories_segments":[],"categories_sizes":[],"default_left":[0,0,0,0,0,0,0,0,0,0,0,0,0,0,0,0,0,0,0,0,0,0,0,0,0,0,0,0,0,0,0,0,0,0,0,0,0,0,0,0,0,0,0,0,0,0,0,0,0,0,0,0,0,0,0,0,0,0,0,0,0,0,0,0,0,0,0,0,0,0,0,0,0,0,0,0,0,0,0],"id":1,"left_children":[1,3,5,7,9,11,13,15,17,19,21,23,25,27,29,31,33,-1,35,-1,-1,-1,37,39,41,43,45,-1,-1,47,49,51,53,-1,-1,55,-1,57,-1,59,61,63,65,67,-1,69,-1,71,73,75,77,-1,-1,-1,-1,-1,-1,-1,-1,-1,-1,-1,-1,-1,-1,-1,-1,-1,-1,-1,-1,-1,-1,-1,-1,-1,-1,-1,-1],"loss_changes":[2.1847917E5,3.5080547E3,6.875508E3,1.8654141E3,6.034015E2,3.2172512E3,3.19675E3,8.427969E2,9.34389E1,2.5223274E1,1.1554822E2,2.37598E3,1.898667E2,3.6947144E2,1.3219844E3,3.9439844E2,2.1279358E1,0E0,5.897396E1,0E0,0E0,0E0,9.747529E1,9.7878735E2,1.126907E3,1.6498955E2,1.5533203E1,0E0,0E0,3.9367188E2,1.8968862E3,1.7739062E2,5.73969E2,0E0,0E0,2.0174332E0,0E0,2.4587118E1,0E0,9.9660254E2,3.9469443E2,3.082323E2,4.2394412E2,2.090752E1,0E0,3.5996212E1,0E0,1.7517969E2,1.0463818E3,1.2675032E3,8.746406E2,0E0,0E0,0E0,0E0,0E0,0E0,0E0,0E0,0E0,0E0,0E0,0E0,0E0,0E0,0E0,0E0,0E0,0E0,0E0,0E0,0E0,0E0,0E0,0E0,0E0,0E0,0E0,0E0],"parents":[2147483647,0,0,1,1,2,2,3,3,4,4,5,5,6,6,7,7,8,8,9,9,10,10,11,11,12,12,13,13,14,14,15,15,16,16,18,18,22,22,23,23,24,24,25,25,26,26,29,29,30,30,31,31,32,32,35,35,37,37,39,39,40,40,41,41,42,42,43,43,45,45,47,47,48,48,49,49,50,50],"right_children":[2,4,6,8,10,12,14,16,18,20,22,24,26,28,30,32,34,-1,36,-1,-1,-1,38,40,42,44,46,-1,-1,48,50,52,54,-1,-1,56,-1,58,-1,60,62,64,66,68,-1,70,-1,72,74,76,78,-1,-1,-1,-1,-1,-1,-1,-1,-1,-1,-1,-1,-1,-1,-1,-1,-1,-1,-1,-1,-1,-1,-1,-1,-1,-1,-1,-1],"split_conditions":[-1.5418898E0,5.1638823E-2,-7.931723E-1,1.0350561E0,-2.0609484E0,1.2027122E0,-7.6090813E0,1.1009372E0,2.3563864E0,1.7172713E0,8.741538E-1,7.6516086E-1,-1.3875822E0,-1.5518246E0,1.7172713E0,5.5135804E-1,-1.2875051E0,-2.4431169E-1,-2.2657483E0,-1.7082098E-1,1.4169501E-1,-2.4417578E-1,-7.392631E-1,1.174751E0,9.836135E-1,-5.389276E-1,-2.111637E0,1.4359744E-1,-2.3794515E-1,6.655717E-1,-2.5306237E0,-1.1281034E0,-2.5733945E-1,6.4523235E-2,-2.4160762E-1,-4.636588E0,-2.2091821E-1,-7.334939E-1,-2.336886E-1,-9.847661E-1,6.4948246E4,1.1889402E0,-3.525076E-1,-7.521835E-2,-2.3677135E-1,1.0863483E0,-2.4513148E-1,-3.719084E0,7.7422345E-1,2.677124E-2,-6.1902964E-1,-2.755507E-1,1.4336586E-1,-9.939793E-2,1.1515399E-1,1.7533883E-3,1.3270564E-1,1.3665782E-1,-1.7050923E-1,-5.627963E-3,-2.4821608E-1,-2.632757E-1,9.66774E-2,1.0808764E-1,-2.8080937E-1,4.6113838E-2,-1.7956738E-1,1.4078917E-1,-1.6253513E-1,-2.2396994E-1,1.15592696E-1,3.673735E-2,-2.4137776E-1,-2.511425E-1,-7.411441E-2,1.0445084E-1,-2.4986115E-1,-4.3039303E-2,-2.3097675E-1],"split_indices":[14,12,14,10,10,3,7,3,4,4,26,4,10,16,4,7,17,0,17,0,0,0,7,19,1,17,19,0,0,20,12,4,26,0,0,1,0,10,0,10,0,18,29,7,0,2,0,6,15,6,8,0,0,0,0,0,0,0,0,0,0,0,0,0,0,0,0,0,0,0,0,0,0,0,0,0,0,0,0],"split_type":[0,0,0,0,0,0,0,0,0,0,0,0,0,0,0,0,0,0,0,0,0,0,0,0,0,0,0,0,0,0,0,0,0,0,0,0,0,0,0,0,0,0,0,0,0,0,0,0,0,0,0,0,0,0,0,0,0,0,0,0,0,0,0,0,0,0,0,0,0,0,0,0,0,0,0,0,0,0,0],"sum_hessian":[7.65271E4,4.6710934E4,2.981617E4,4.6340863E4,3.700696E2,3.6904226E3,2.6125746E4,4.619322E4,1.4764403E2,5.718492E1,3.128847E2,2.6884807E3,1.0019421E3,2.8476562E2,2.584098E4,4.613333E4,5.9890133E1,1.2804391E2,1.9600115E1,1.8902271E0,5.5294693E1,2.7836008E2,3.452462E1,1.1129221E3,1.5755585E3,5.0986244E1,9.509559E2,2.5752728E2,2.7238363E1,2.3256902E4,2.5840784E3,4.538776E4,7.4556555E2,1.971728E0,5.7918404E1,1.2430623E1,7.1694913E0,1.9634155E1,1.4890464E1,8.734324E2,2.3948976E2,1.2138912E3,3.6166724E2,2.7855482E1,2.3130764E1,1.2509E1,9.3844684E2,2.1811896E4,1.4450061E3,5.136755E2,2.070403E3,9.22769E0,4.5378535E4,1.5732442E2,5.8824115E2,1.3330815E0,1.1097542E1,1.7472664E1,2.1614914E0,2.2974744E2,6.4368494E2,3.4778023E1,2.0471175E2,1.1940869E3,1.9804274E1,1.2865627E2,2.3301097E2,2.620143E1,1.6540521E0,8.641076E0,3.867924E0,2.2423965E1,2.1789473E4,9.192321E2,5.2577405E2,3.7689578E2,1.3677966E2,2.8816507E2,1.7822379E3],"tree_param":{"num_deleted":"0","num_feature":"30","num_nodes":"79","size_leaf_vector":"1"}},{"base_weights":[3.202749E-2,1.332234E0,-1.8089302E0,1.3499789E0,-1.6067482E0,-6.8708754E-1,-1.9762185E0,1.3597126E0,-1.9684379E0,1.2044036E0,-2.0026817E0,-1.6459215E-1,-2.0098474E0,1.0113252E0,-2.0066257E0,-1.8841211E0,1.3636632E0,6.4827454E-1,-2.123531E-1,-1.2967935E-1,1.3408685E-1,-2.1096325E0,-4.2725536E-1,-1.1380426E0,5.2651215E-1,-3.8803312E-1,-2.0938702E0,1.3768105E-1,-2.0821133E-1,-2.0707748E0,-1.4239236E0,5.961045E-1,-2.4268758E-1,1.3747292E0,6.910981E-1,1.1845046E-1,-1.2431383E-1,-9.6298635E-1,-2.1291678E-1,-1.9211473E-1,9.389345E-1,-1.5589306E0,4.277923E-1,9.3271583E-1,-1.0399818E0,1.1284928E0,-2.0842397E-1,-3.4562624E-1,-2.1386068E0,-2.0884614E0,-1.3282486E0,9.212658E-2,-1.7824693E0,-1.6972579E-1,1.3074759E-1,-1.976251E-1,1.3756512E-1,-8.7963425E-2,1.1398019E-1,-1.6336913E-1,7.595841E-2,1.2112385E-1,-4.9300335E-2,7.771447E-4,-2.1471801E-1,-2.4022095E-1,9.006222E-2,-2.4380401E-1,9.9815056E-2,3.267541E-2,-1.758E-1,1.3645144E-1,-1.5643193E-1,-2.026598E-1,1.3223784E-1,-9.9953406E-2,-2.1412373E-1,-1.8322611E-1,-2.1146531E-1,9.781882E-2,-2.1133809E-1,1.17817156E-1,-1.8259984E-1,-3.2081906E-2,-1.994803E-1],"categories":[],"categories_nodes":[],"categories_segments":[],"categories_sizes":[],"default_left":[0,0,0,0,0,0,0,0,0,0,0,0,0,0,0,0,0,0,0,0,0,0,0,0,0,0,0,0,0,0,0,0,0,0,0,0,0,0,0,0,0,0,0,0,0,0,0,0,0,0,0,0,0,0,0,0,0,0,0,0,0,0,0,0,0,0,0,0,0,0,0,0,0,0,0,0,0,0,0,0,0,0,0,0,0],"id":2,"left_children":[1,3,5,7,9,11,13,15,17,19,21,23,25,27,29,31,33,35,-1,-1,-1,37,39,41,43,45,47,-1,-1,49,51,53,-1,55,57,-1,-1,59,-1,-1,61,63,65,67,69,71,-1,73,75,77,79,81,83,-1,-1,-1,-1,-1,-1,-1,-1,-1,-1,-1,-1,-1,-1,-1,-1,-1,-1,-1,-1,-1,-1,-1,-1,-1,-1,-1,-1,-1,-1,-1,-1],"loss_changes":[1.7872647E5,2.2843828E3,5.7989766E3,1.4077031E3,2.9523804E2,2.772687E3,2.4453047E3,5.5839844E2,5.3171997E1,1.3038197E1,3.8017944E1,1.9362886E3,1.5399072E2,3.099953E2,9.9228125E2,7.30327E1,3.2145312E2,9.4923725E0,0E0,0E0,0E0,2.7891846E0,3.4332214E1,7.8816833E2,1.072102E3,1.4944534E2,8.371387E1,0E0,0E0,3.121797E2,1.4371714E3,1.9105383E1,0E0,1.3440625E2,4.9663324E2,0E0,0E0,7.5316143E0,0E0,0E0,4.1050797E0,8.681665E2,3.419482E2,2.9738135E2,3.4119095E2,2.1734688E1,0E0,8.15678E1,1.0136719E0,1.5329688E2,1.0174206E3,1.0574572E3,6.6291846E2,0E0,0E0,0E0,0E0,0E0,0E0,0E0,0E0,0E0,0E0,0E0,0E0,0E0,0E0,0E0,0E0,0E0,0E0,0E0,0E0,0E0,0E0,0E0,0E0,0E0,0E0,0E0,0E0,0E0,0E0,0E0,0E0],"parents":[2147483647,0,0,1,1,2,2,3,3,4,4,5,5,6,6,7,7,8,8,9,9,10,10,11,11,12,12,13,13,14,14,15,15,16,16,17,17,21,21,22,22,23,23,24,24,25,25,26,26,29,29,30,30,31,31,33,33,34,34,37,37,40,40,41,41,42,42,43,43,44,44,45,45,47,47,48,48,49,49,50,50,51,51,52,52],"right_children":[2,4,6,8,10,12,14,16,18,20,22,24,26,28,30,32,34,36,-1,-1,-1,38,40,42,44,46,48,-1,-1,50,52,54,-1,56,58,-1,-1,60,-1,-1,62,64,66,68,70,72,-1,74,76,78,80,82,84,-1,-1,-1,-1,-1,-1,-1,-1,-1,-1,-1,-1,-1,-1,-1,-1,-1,-1,-1,-1,-1,-1,-1,-1,-1,-1,-1,-1,-1,-1,-1,-1],"split_conditions":[-1.6779362E0,7.9090215E-2,-7.931723E-1,1.12958E0,-2.0609484E0,1.163753E0,-7.6090813E0,-4.2151392E-1,-1.0198901E0,1.1750764E0,1.0155864E0,7.6516086E-1,-1.3875822E0,-1.5518246E0,1.7172713E0,-8.723099E-1,5.5135804E-1,-1.5334556E0,-2.123531E-1,-1.2967935E-1,1.3408685E-1,-1.1718856E0,-6.655294E-1,1.1605409E0,1.0735575E0,-5.389276E-1,-1.9850775E0,1.3768105E-1,-2.0821133E-1,8.4866256E-1,-2.5306237E0,-9.53687E-3,-2.4268758E-1,-9.790701E-1,-2.5733945E-1,1.1845046E-1,-1.2431383E-1,-2.2429295E0,-2.1291678E-1,-1.9211473E-1,7.67296E-1,-9.847661E-1,-5.9547186E-1,-1.0156381E0,-3.525076E-1,-7.521835E-2,-2.0842397E-1,1.2883298E0,-1.8877589E0,-4.825215E-1,-1.57249E0,-1.6225691E-1,-7.413129E-1,-1.6972579E-1,1.3074759E-1,-1.976251E-1,1.3756512E-1,-8.7963425E-2,1.1398019E-1,-1.6336913E-1,7.595841E-2,1.2112385E-1,-4.9300335E-2,7.771447E-4,-2.1471801E-1,-2.4022095E-1,9.006222E-2,-2.4380401E-1,9.9815056E-2,3.267541E-2,-1.758E-1,1.3645144E-1,-1.5643193E-1,-2.026598E-1,1.3223784E-1,-9.9953406E-2,-2.1412373E-1,-1.8322611E-1,-2.1146531E-1,9.781882E-2,-2.1133809E-1,1.17817156E-1,-1.8259984E-1,-3.2081906E-2,-1.994803E-1],"split_indices":[14,12,14,10,10,3,7,11,9,4,26,4,10,16,4,22,7,1,0,0,0,23,1,19,1,17,19,0,0,23,12,8,0,4,26,0,0,1,0,0,13,10,4,11,29,7,0,2,19,14,13,10,8,0,0,0,0,0,0,0,0,0,0,0,0,0,0,0,0,0,0,0,0,0,0,0,0,0,0,0,0,0,0,0,0],"split_type":[0,0,0,0,0,0,0,0,0,0,0,0,0,0,0,0,0,0,0,0,0,0,0,0,0,0,0,0,0,0,0,0,0,0,0,0,0,0,0,0,0,0,0,0,0,0,0,0,0,0,0,0,0,0,0,0,0,0,0,0,0,0,0,0,0,0,0,0,0,0,0,0,0,0,0,0,0,0,0,0,0,0,0,0,0],"sum_hessian":[7.466569E4,4.375985E4,3.0905838E4,4.3497766E4,2.6208923E2,4.0112615E3,2.6894576E4,4.3371137E4,1.2662701E2,3.2104366E1,2.2998488E2,2.8762542E3,1.1350073E3,2.7064948E2,2.6623926E4,5.2178185E1,4.3318957E4,6.9073296E0,1.1971967E2,1.2210776E0,3.088329E1,2.1504694E2,1.49379425E1,1.1939197E3,1.6823345E3,5.6182644E1,1.0788246E3,2.4254773E2,2.8101738E1,2.3981295E4,2.642631E3,9.3505745E0,4.282761E1,4.261673E4,7.022282E2,5.672795E0,1.2345349E0,4.444897E0,2.1060204E2,6.9414477E0,7.996495E0,9.4099084E2,2.5292891E2,1.3362416E3,3.460929E2,2.9839111E1,2.634353E1,2.7135365E1,1.0516893E3,2.3421592E4,5.597029E2,5.0558655E2,2.1370444E3,1.8856392E0,7.464935E0,1.1134394E1,4.2605598E4,1.5581651E2,5.464117E2,3.2363713E0,1.2085259E0,6.848314E0,1.1481812E0,2.5713705E2,6.8385376E2,3.5624878E1,2.1730403E2,2.4755312E1,1.3114863E3,1.1938684E2,2.2670607E2,2.7888037E1,1.9510751E0,1.3408073E1,1.3727292E1,3.3008614E0,1.0483884E3,2.1789246E3,2.1242668E4,1.4207924E2,4.1762366E2,3.23057E2,1.8252953E2,2.7138834E2,1.8656561E3],"tree_param":{"num_deleted":"0","num_feature":"30","num_nodes":"85","size_leaf_vector":"1"}},{"base_weights":[3.283733E-2,1.2826065E0,-1.6252425E0,1.30082E0,-1.3576876E0,-6.246512E-1,-1.7722288E0,1.3102809E0,-1.7695777E0,1.202298E0,-1.809595E0,-1.4921814E-1,-1.807064E0,9.680042E-1,-1.7984593E0,-1.6588358E0,1.3140982E0,6.071445E-1,-1.9068284E-1,-1.2143983E-1,1.303461E-1,-1.9103847E0,-3.4197995E-1,-1.0454732E0,4.769418E-1,-3.6013773E-1,-1.8798685E0,1.3274485E-1,-1.8725297E-1,-1.8422401E0,-1.0944272E0,5.514728E-1,-2.1304734E-1,1.3246348E0,6.257442E-1,1.1376283E-1,-1.1675965E-1,-8.867876E-1,-1.926916E-1,9.334054E-1,-1.7526631E-1,-2.0058577E0,-4.32957E-1,9.004234E-1,-7.85976E-1,-1.8898569E-1,1.063389E0,-3.190875E-1,-1.9186662E0,4.585813E-1,-1.8475416E0,4.325372E-1,-1.6706251E0,-1.5527429E-1,1.24786E-1,-1.7442068E-1,1.3255376E-1,-1.5580074E-1,9.858113E-2,-1.5039903E-1,7.323643E-2,-4.791828E-2,1.1839893E-1,4.0624265E-2,-2.1049945E-1,-1.7530885E-1,2.1127854E-2,9.724881E-2,-2.5363076E-1,-2.0711342E-1,-3.961389E-3,1.3111822E-1,-1.3427071E-1,-1.8263985E-1,1.2689196E-1,-9.115068E-2,-1.9210073E-1,1.7459157E-1,-1.85007E-1,-1.0742867E-1,-1.859449E-1,-1.5827723E-1,1.2305174E-1,-1.7646858E-1,8.19374E-2],"categories":[],"categories_nodes":[],"categories_segments":[],"categories_sizes":[],"default_left":[0,0,0,0,0,0,0,0,0,0,0,0,0,0,0,0,0,0,0,0,0,0,0,0,0,0,0,0,0,0,0,0,0,0,0,0,0,0,0,0,0,0,0,0,0,0,0,0,0,0,0,0,0,0,0,0,0,0,0,0,0,0,0,0,0,0,0,0,0,0,0,0,0,0,0,0,0,0,0,0,0,0,0,0,0],"id":3,"left_children":[1,3,5,7,9,11,13,15,17,19,21,23,25,27,29,31,33,35,-1,-1,-1,37,39,41,43,45,47,-1,-1,49,51,53,-1,55,57,-1,-1,59,-1,61,-1,63,65,67,69,-1,71,73,75,77,79,81,83,-1,-1,-1,-1,-1,-1,-1,-1,-1,-1,-1,-1,-1,-1,-1,-1,-1,-1,-1,-1,-1,-1,-1,-1,-1,-1,-1,-1,-1,-1,-1,-1],"loss_changes":[1.491909E5,1.9759453E3,4.5498047E3,1.1866797E3,3.2811597E2,2.2286155E3,1.9409531E3,4.628828E2,4.2152466E1,1.2064674E1,3.4828003E1,1.5880886E3,1.1909155E2,2.6433194E2,8.216953E2,5.604361E1,2.9359375E2,8.501852E0,0E0,0E0,0E0,2.0855713E0,3.156065E1,6.8375745E2,8.9177124E2,1.2330975E2,6.4923096E1,0E0,0E0,3.0771875E2,1.3794337E3,1.6664864E1,0E0,1.1309375E2,4.8425635E2,0E0,0E0,6.5143876E0,0E0,3.8903189E0,0E0,1.0916614E2,6.0581573E2,3.1159833E2,4.017395E2,0E0,1.9344837E1,6.802074E1,7.3828125E-1,1.7749896E2,2.2910938E2,6.936324E2,2.679563E2,0E0,0E0,0E0,0E0,0E0,0E0,0E0,0E0,0E0,0E0,0E0,0E0,0E0,0E0,0E0,0E0,0E0,0E0,0E0,0E0,0E0,0E0,0E0,0E0,0E0,0E0,0E0,0E0,0E0,0E0,0E0,0E0],"parents":[2147483647,0,0,1,1,2,2,3,3,4,4,5,5,6,6,7,7,8,8,9,9,10,10,11,11,12,12,13,13,14,14,15,15,16,16,17,17,21,21,22,22,23,23,24,24,25,25,26,26,29,29,30,30,31,31,33,33,34,34,37,37,39,39,41,41,42,42,43,43,44,44,46,46,47,47,48,48,49,49,50,50,51,51,52,52],"right_children":[2,4,6,8,10,12,14,16,18,20,22,24,26,28,30,32,34,36,-1,-1,-1,38,40,42,44,46,48,-1,-1,50,52,54,-1,56,58,-1,-1,60,-1,62,-1,64,66,68,70,-1,72,74,76,78,80,82,84,-1,-1,-1,-1,-1,-1,-1,-1,-1,-1,-1,-1,-1,-1,-1,-1,-1,-1,-1,-1,-1,-1,-1,-1,-1,-1,-1,-1,-1,-1,-1,-1],"split_conditions":[-1.6779362E0,5.1638823E-2,-7.931723E-1,1.12958E0,-2.0609484E0,1.163753E0,-7.6090813E0,-4.2151392E-1,-1.0198901E0,1.1750764E0,1.0155864E0,7.4000096E-1,-1.3875822E0,-1.5518246E0,2.5213366E0,-8.723099E-1,5.8398E-1,-1.5334556E0,-1.9068284E-1,-1.2143983E-1,1.303461E-1,-1.1718856E0,-1.0125049E0,-2.4660125E-1,9.836135E-1,6.276166E-1,-1.9850775E0,1.3274485E-1,-1.8725297E-1,-1.5789782E0,3.610421E-2,-9.53687E-3,-2.1304734E-1,-9.790701E-1,-2.8761223E-1,1.1376283E-1,-1.1675965E-1,-2.2429295E0,-1.926916E-1,-6.655294E-1,-1.7526631E-1,-1.7132585E0,-4.8764625E-1,1.1889402E0,-5.56219E-2,-1.8898569E-1,-5.389276E-1,1.2883298E0,-1.8877589E0,-6.557683E-2,-1.9850775E0,-5.9511596E-1,2.1312854E0,-1.5527429E-1,1.24786E-1,-1.7442068E-1,1.3255376E-1,-1.5580074E-1,9.858113E-2,-1.5039903E-1,7.323643E-2,-4.791828E-2,1.1839893E-1,4.0624265E-2,-2.1049945E-1,-1.7530885E-1,2.1127854E-2,9.724881E-2,-2.5363076E-1,-2.0711342E-1,-3.961389E-3,1.3111822E-1,-1.3427071E-1,-1.8263985E-1,1.2689196E-1,-9.115068E-2,-1.9210073E-1,1.7459157E-1,-1.85007E-1,-1.0742867E-1,-1.859449E-1,-1.5827723E-1,1.2305174E-1,-1.7646858E-1,8.19374E-2],"split_indices":[14,12,14,10,10,3,7,11,9,4,26,4,10,16,4,22,7,1,0,0,0,23,7,29,1,15,19,0,0,17,10,8,0,4,26,0,0,1,0,1,0,10,4,18,8,0,17,2,19,16,19,1,7,0,0,0,0,0,0,0,0,0,0,0,0,0,0,0,0,0,0,0,0,0,0,0,0,0,0,0,0,0,0,0,0],"split_type":[0,0,0,0,0,0,0,0,0,0,0,0,0,0,0,0,0,0,0,0,0,0,0,0,0,0,0,0,0,0,0,0,0,0,0,0,0,0,0,0,0,0,0,0,0,0,0,0,0,0,0,0,0,0,0,0,0,0,0,0,0,0,0,0,0,0,0,0,0,0,0,0,0,0,0,0,0,0,0,0,0,0,0,0,0],"sum_hessian":[7.199377E4,4.1051582E4,3.0942193E4,4.077084E4,2.807416E2,3.9638716E3,2.6978322E4,4.064617E4,1.2467103E2,4.187361E1,2.3886798E2,2.8279253E3,1.1359463E3,2.5545723E2,2.6722865E4,5.163365E1,4.0594535E4,6.6195207E0,1.18051506E2,1.2402691E0,4.063334E1,2.2323543E2,1.5632556E1,1.1628329E3,1.6650924E3,5.470367E1,1.0812427E3,2.272353E2,2.8221926E1,2.5156852E4,1.5660134E3,9.050343E0,4.258331E1,3.998162E4,6.129164E2,5.372598E0,1.2469224E0,4.416467E0,2.1881897E2,8.387671E0,7.2448845E0,4.5194244E2,7.108904E2,1.2471763E3,4.179161E2,2.6210415E1,2.8493256E1,2.6449293E1,1.0547933E3,5.763679E1,2.5099215E4,4.2910492E2,1.1369086E3,1.944648E0,7.105695E0,1.1190587E1,3.997043E4,8.628485E1,5.2663153E2,3.249079E0,1.1673881E0,1.1262915E0,7.26138E0,1.7719164E1,4.342233E2,2.3257976E2,4.7831064E2,1.2222637E3,2.4912561E1,1.5288649E2,2.6502963E2,2.6245413E1,2.2478416E0,1.3492401E1,1.2956892E1,3.351347E0,1.051442E3,3.7159767E1,2.0477024E1,3.8202625E2,2.471719E4,1.214352E2,3.076697E2,1.0958054E3,4.110315E1],"tree_param":{"num_deleted":"0","num_feature":"30","num_nodes":"85","size_leaf_vector":"1"}},{"base_weights":[3.3142284E-2,1.2405632E0,-1.4853781E0,1.258549E0,-1.2532285E0,-5.383429E-1,-1.6139276E0,1.2678925E0,-1.6243238E0,1.1582367E0,-1.6590761E0,-1.0590408E-1,-1.6535431E0,9.3836915E-1,-1.6373606E0,-1.1174265E0,1.2723285E0,5.7046944E-1,-1.7477153E-1,-1.1424154E-1,1.2613094E-1,-1.749464E0,-3.2195574E-1,-1.4150902E0,2.4527927E-1,-8.252981E-1,-1.761282E-1,1.2865363E-1,-1.7168215E-1,-1.6920967E0,-1.1449429E0,-1.9830616E-1,2.8709936E-1,1.2834562E0,6.325715E-1,1.0958161E-1,-1.1012416E-1,-8.2256746E-1,-1.7642964E-1,8.977577E-1,-1.6188002E-1,-1.7351916E0,-7.240529E-2,7.6694363E-1,-4.8079062E-1,2.2974749E-1,-1.7366688E-1,-1.7218373E0,-1.2510767E0,1.5007487E-1,-1.4396589E0,1.0001385E-1,-2.1666233E-1,-1.7862235E-1,1.2842385E-1,-2.9163202E-2,1.28354E-1,-1.3980521E-1,7.0688955E-2,-4.190301E-2,1.1414019E-1,-1.4182261E-2,-1.8105844E-1,1.1797669E-1,-1.52462E-1,8.807763E-2,-1.9590215E-1,-2.2278838E-1,-2.035792E-2,-1.6899072E-1,9.379693E-2,5.9054084E-2,-1.7247115E-1,-1.241139E-2,-1.7314717E-1,9.5394544E-2,-1.8668471E-1,-2.3985079E-2,-1.6349486E-1],"categories":[],"categories_nodes":[],"categories_segments":[],"categories_sizes":[],"default_left":[0,0,0,0,0,0,0,0,0,0,0,0,0,0,0,0,0,0,0,0,0,0,0,0,0,0,0,0,0,0,0,0,0,0,0,0,0,0,0,0,0,0,0,0,0,0,0,0,0,0,0,0,0,0,0,0,0,0,0,0,0,0,0,0,0,0,0,0,0,0,0,0,0,0,0,0,0,0,0],"id":4,"left_children":[1,3,5,7,9,11,13,15,17,19,21,23,25,27,29,31,33,35,-1,-1,-1,37,39,41,43,45,-1,-1,-1,47,49,-1,51,53,55,-1,-1,57,-1,59,-1,61,63,65,67,69,-1,71,73,75,77,-1,-1,-1,-1,-1,-1,-1,-1,-1,-1,-1,-1,-1,-1,-1,-1,-1,-1,-1,-1,-1,-1,-1,-1,-1,-1,-1,-1],"loss_changes":[1.2619888E5,1.7213555E3,3.7106797E3,1.0274727E3,2.711155E2,1.7577511E3,1.6069609E3,4.029414E2,3.4421753E1,1.0976597E1,2.7940735E1,1.2084899E3,8.9428955E1,2.2855403E2,7.149922E2,8.68569E1,2.6883203E2,7.6383066E0,0E0,0E0,0E0,1.5827637E0,2.7013046E1,2.3881445E2,7.8547375E2,1.149331E2,0E0,0E0,0E0,3.1179688E2,1.01697217E3,0E0,5.104315E1,9.170703E1,3.9113513E2,0E0,0E0,5.6965904E0,0E0,3.3562112E0,0E0,5.366565E1,1.9831001E2,3.761292E2,4.195591E2,7.784094E1,0E0,1.5003906E2,8.204407E2,8.0399023E2,5.081172E2,0E0,0E0,0E0,0E0,0E0,0E0,0E0,0E0,0E0,0E0,0E0,0E0,0E0,0E0,0E0,0E0,0E0,0E0,0E0,0E0,0E0,0E0,0E0,0E0,0E0,0E0,0E0,0E0],"parents":[2147483647,0,0,1,1,2,2,3,3,4,4,5,5,6,6,7,7,8,8,9,9,10,10,11,11,12,12,13,13,14,14,15,15,16,16,17,17,21,21,22,22,23,23,24,24,25,25,29,29,30,30,32,32,33,33,34,34,37,37,39,39,41,41,42,42,43,43,44,44,45,45,47,47,48,48,49,49,50,50],"right_children":[2,4,6,8,10,12,14,16,18,20,22,24,26,28,30,32,34,36,-1,-1,-1,38,40,42,44,46,-1,-1,-1,48,50,-1,52,54,56,-1,-1,58,-1,60,-1,62,64,66,68,70,-1,72,74,76,78,-1,-1,-1,-1,-1,-1,-1,-1,-1,-1,-1,-1,-1,-1,-1,-1,-1,-1,-1,-1,-1,-1,-1,-1,-1,-1,-1,-1],"split_conditions":[-1.6779362E0,5.1638823E-2,-8.32878E-1,1.12958E0,-2.0609484E0,1.163753E0,-7.6090813E0,-3.0000702E-1,-1.0198901E0,1.1750764E0,1.0155864E0,-3.051419E-1,-6.725508E-1,-1.5518246E0,1.7172713E0,1.418149E0,5.5135804E-1,-1.5334556E0,-1.7477153E-1,-1.1424154E-1,1.2613094E-1,-1.1718856E0,-8.350077E-1,1.174751E0,-1.1683791E-1,-4.271451E-1,-1.761282E-1,1.2865363E-1,-1.7168215E-1,6.655717E-1,-2.5306237E0,-1.9830616E-1,8.9290816E-1,-1.0283186E0,2.078059E0,1.0958161E-1,-1.1012416E-1,-2.2429295E0,-1.7642964E-1,2.0434046E-1,-1.6188002E-1,-1.7132585E0,1.211536E0,1.250908E0,-8.8689435E-1,-8.3550113E-1,-1.7366688E-1,-4.233692E0,-6.350888E-1,4.032644E-2,-6.1902964E-1,1.0001385E-1,-2.1666233E-1,-1.7862235E-1,1.2842385E-1,-2.9163202E-2,1.28354E-1,-1.3980521E-1,7.0688955E-2,-4.190301E-2,1.1414019E-1,-1.4182261E-2,-1.8105844E-1,1.1797669E-1,-1.52462E-1,8.807763E-2,-1.9590215E-1,-2.2278838E-1,-2.035792E-2,-1.6899072E-1,9.379693E-2,5.9054084E-2,-1.7247115E-1,-1.241139E-2,-1.7314717E-1,9.5394544E-2,-1.8668471E-1,-2.3985079E-2,-1.6349486E-1],"split_indices":[14,12,14,10,10,3,7,11,9,4,26,4,6,16,4,4,7,1,0,0,0,23,10,19,12,10,0,0,0,20,12,0,17,4,4,0,0,1,0,25,0,10,19,1,6,6,0,23,12,6,8,0,0,0,0,0,0,0,0,0,0,0,0,0,0,0,0,0,0,0,0,0,0,0,0,0,0,0,0],"split_type":[0,0,0,0,0,0,0,0,0,0,0,0,0,0,0,0,0,0,0,0,0,0,0,0,0,0,0,0,0,0,0,0,0,0,0,0,0,0,0,0,0,0,0,0,0,0,0,0,0,0,0,0,0,0,0,0,0,0,0,0,0,0,0,0,0,0,0,0,0,0,0,0,0,0,0,0,0,0,0],"sum_hessian":[6.882775E4,3.834148E4,3.048627E4,3.806742E4,2.740561E2,3.644215E3,2.6842055E4,3.7945E4,1.2242112E2,3.921205E1,2.3484402E2,2.6267432E3,1.01747174E3,2.4384308E2,2.659821E4,6.997144E1,3.787503E4,6.323324E0,1.1609779E2,1.2490385E0,3.7963013E1,2.1968515E2,1.5158871E1,5.5493945E2,2.0718037E3,1.1811558E2,8.9935614E2,2.1603104E2,2.7812042E1,2.3935191E4,2.66302E3,4.303579E1,2.6935652E1,3.7226523E4,6.485066E2,5.0734515E0,1.2498728E0,4.3492775E0,2.1533588E2,7.970325E0,7.188546E0,4.478726E2,1.0706689E2,1.205572E3,8.662318E2,5.5089405E1,6.3026176E1,2.2420352E4,1.5148386E3,4.937804E2,2.1692397E3,2.1329739E1,5.605912E0,8.904753E0,3.7217617E4,2.6823523E2,3.8027136E2,3.2226253E0,1.1266525E0,1.1320825E0,6.8382425E0,2.0364546E1,4.2750803E2,5.759404E1,4.947285E1,1.1578967E3,4.7675293E1,1.176595E2,7.485723E2,1.447322E1,4.0616184E1,2.7579472E1,2.2392773E4,4.5311972E2,1.061719E3,3.5343948E2,1.403409E2,3.03968E2,1.8652717E3],"tree_param":{"num_deleted":"0","num_feature":"30","num_nodes":"79","size_leaf_vector":"1"}},{"base_weights":[3.312437E-2,1.2045132E0,-1.3757545E0,1.2222806E0,-1.1719351E0,8.50276E-1,-1.424085E0,1.2317697E0,-1.4437363E0,1.11973E0,-1.5435039E0,1.3305304E0,-1.0728077E0,-6.8779373E-1,-1.5234281E0,1.2529613E0,7.531757E-1,-1.5893574E0,5.585758E-1,-1.0789943E-1,1.2249736E-1,-1.6412194E-1,-4.7229448E-1,-1.3951163E-1,1.3591895E0,-1.6746274E-1,1.03002E0,-3.128106E-1,-1.5702056E0,-1.5747744E0,-1.0634773E0,-1.3719295E0,1.2533588E0,-2.7597232E0,9.2392075E-1,8.90498E-2,-1.6473801E-1,-1.0817975E-1,1.12961926E-1,8.469734E-1,-1.5525706E-1,1.9174774E0,1.3269265E0,1.27032E-1,-1.6851132E-1,3.4907418E-1,-1.0401136E0,-3.8829616E-1,-1.6271966E0,7.2044563E-1,-1.5812632E0,-4.2011288E-1,-1.5518826E0,-1.524845E-1,-3.5050888E-2,1.253557E-1,-2.0194875E-1,6.0027737E-2,-3.0384544E-1,1.049211E-1,-2.602677E-1,1.1331206E-1,-5.557918E-2,1.2292985E-1,2.0860918E-1,1.3332394E-1,-2.99487E-2,-2.1469891E-1,5.4684144E-2,-1.3569544E-1,7.465464E-2,-1.6109245E-1,9.927454E-2,-8.449869E-2,-1.6360192E-1,1.3708793E-1,-1.6759E-1,-1.6085464E-1,-1.1795384E-1,7.659649E-2,-1.0313833E-1,-1.6045631E-1,5.440522E-2],"categories":[],"categories_nodes":[],"categories_segments":[],"categories_sizes":[],"default_left":[0,0,0,0,0,0,0,0,0,0,0,0,0,0,0,0,0,0,0,0,0,0,0,0,0,0,0,0,0,0,0,0,0,0,0,0,0,0,0,0,0,0,0,0,0,0,0,0,0,0,0,0,0,0,0,0,0,0,0,0,0,0,0,0,0,0,0,0,0,0,0,0,0,0,0,0,0,0,0,0,0,0,0],"id":5,"left_children":[1,3,5,7,9,11,13,15,17,19,21,23,25,27,29,31,33,35,37,-1,-1,-1,39,-1,41,-1,43,45,47,49,51,53,55,57,59,-1,-1,-1,-1,61,-1,63,65,-1,-1,67,69,71,73,75,77,79,81,-1,-1,-1,-1,-1,-1,-1,-1,-1,-1,-1,-1,-1,-1,-1,-1,-1,-1,-1,-1,-1,-1,-1,-1,-1,-1,-1,-1,-1,-1],"loss_changes":[1.0784597E5,1.5080117E3,3.1928828E3,8.977539E2,2.2763309E2,5.8423944E2,2.1228398E3,3.569922E2,3.7647614E1,1.002092E1,2.3164368E1,4.137439E1,1.6200809E2,1.142326E3,6.0251953E2,3.6984375E1,9.016174E2,1.8414795E1,9.921467E0,0E0,0E0,0E0,3.0563122E1,0E0,6.4732056E0,0E0,2.0931927E1,1.16775E3,6.872974E1,3.438711E2,8.076167E2,3.3945656E-1,2.4449219E1,6.712781E1,6.3465906E2,0E0,0E0,0E0,0E0,4.5981016E0,0E0,3.4855652E-1,5.292053E0,0E0,0E0,6.2827515E2,6.5522156E2,8.380041E1,5.3950195E0,1.0448596E2,2.4961328E2,8.0658264E2,1.6228467E2,0E0,0E0,0E0,0E0,0E0,0E0,0E0,0E0,0E0,0E0,0E0,0E0,0E0,0E0,0E0,0E0,0E0,0E0,0E0,0E0,0E0,0E0,0E0,0E0,0E0,0E0,0E0,0E0,0E0,0E0],"parents":[2147483647,0,0,1,1,2,2,3,3,4,4,5,5,6,6,7,7,8,8,9,9,10,10,11,11,12,12,13,13,14,14,15,15,16,16,17,17,18,18,22,22,24,24,26,26,27,27,28,28,29,29,30,30,31,31,32,32,33,33,34,34,39,39,41,41,42,42,45,45,46,46,47,47,48,48,49,49,50,50,51,51,52,52],"right_children":[2,4,6,8,10,12,14,16,18,20,22,24,26,28,30,32,34,36,38,-1,-1,-1,40,-1,42,-1,44,46,48,50,52,54,56,58,60,-1,-1,-1,-1,62,-1,64,66,-1,-1,68,70,72,74,76,78,80,82,-1,-1,-1,-1,-1,-1,-1,-1,-1,-1,-1,-1,-1,-1,-1,-1,-1,-1,-1,-1,-1,-1,-1,-1,-1,-1,-1,-1,-1,-1],"split_conditions":[-1.6779362E0,5.1638823E-2,-1.4096453E0,1.0350561E0,-2.0609484E0,3.185678E-2,-7.931723E-1,-1.158648E0,2.2078307E0,1.1750764E0,8.741538E-1,-1.0765961E0,2.6440668E0,1.2027122E0,1.7172713E0,-7.933834E-1,-1.801611E-1,-6.4308815E0,8.707E4,-1.0789943E-1,1.2249736E-1,-1.6412194E-1,-8.350077E-1,-1.3951163E-1,-3.0000702E-1,-1.6746274E-1,-1.1055907E0,-2.5842795E-1,-1.3875822E0,-4.233692E0,2.775125E-1,1.8894017E-1,2.8336122E0,-3.070682E-1,7.112751E-1,8.90498E-2,-1.6473801E-1,-1.0817975E-1,1.12961926E-1,-7.565414E-1,-1.5525706E-1,-7.931723E-1,6.3339955E-1,1.27032E-1,-1.6851132E-1,4.4833E4,2.6231444E0,6.766502E-1,-2.111637E0,-1.6041033E0,6.655717E-1,-3.3629325E-1,2.1312854E0,-1.524845E-1,-3.5050888E-2,1.253557E-1,-2.0194875E-1,6.0027737E-2,-3.0384544E-1,1.049211E-1,-2.602677E-1,1.1331206E-1,-5.557918E-2,1.2292985E-1,2.0860918E-1,1.3332394E-1,-2.99487E-2,-2.1469891E-1,5.4684144E-2,-1.3569544E-1,7.465464E-2,-1.6109245E-1,9.927454E-2,-8.449869E-2,-1.6360192E-1,1.3708793E-1,-1.6759E-1,-1.6085464E-1,-1.1795384E-1,7.659649E-2,-1.0313833E-1,-1.6045631E-1,5.440522E-2],"split_indices":[14,12,17,10,10,16,14,12,29,4,26,4,29,3,4,4,25,12,0,0,0,0,10,0,11,0,28,13,10,23,10,9,13,17,25,0,0,0,0,7,0,14,10,0,0,0,4,15,19,16,20,29,7,0,0,0,0,0,0,0,0,0,0,0,0,0,0,0,0,0,0,0,0,0,0,0,0,0,0,0,0,0,0],"split_type":[0,0,0,0,0,0,0,0,0,0,0,0,0,0,0,0,0,0,0,0,0,0,0,0,0,0,0,0,0,0,0,0,0,0,0,0,0,0,0,0,0,0,0,0,0,0,0,0,0,0,0,0,0,0,0,0,0,0,0,0,0,0,0,0,0,0,0,0,0,0,0,0,0,0,0,0,0,0,0,0,0,0,0],"sum_hessian":[6.534553E4,3.5680074E4,2.9665457E4,3.5415773E4,2.6429874E2,6.3004297E2,2.9035414E4,3.5290703E4,1.2507176E2,3.659348E1,2.2770526E2,5.0438925E2,1.2565371E2,3.452773E3,2.558264E4,3.379278E4,1.4979207E3,1.1678467E2,8.287094E0,1.2489216E0,3.534456E1,2.0818275E2,1.9522505E1,4.752147E0,4.9963712E2,9.7852425E1,2.7801283E1,2.4240298E3,1.0287432E3,2.3011361E4,2.5712808E3,4.595253E0,3.3788188E4,6.872911E1,1.4291917E3,2.3419943E0,1.1444267E2,1.9089736E0,6.3781204E0,8.886271E0,1.0636234E1,2.4103928E1,4.7553317E2,2.6029686E1,1.7715967E0,1.269362E3,1.1546677E3,4.7682945E1,9.810602E2,6.456163E1,2.2946799E4,1.1104163E3,1.4608644E3,3.568196E0,1.0270569E0,3.3786758E4,1.4288017E0,5.1763625E0,6.3552746E1,1.3808368E3,4.835486E1,7.540354E0,1.3459175E0,6.3751435E0,1.7728785E1,4.738741E2,1.659056E0,9.246649E1,1.1768956E3,9.809495E2,1.7371814E2,2.520375E1,2.2479193E1,1.2021384E1,9.690388E2,5.1115437E1,1.3446194E1,2.1484664E4,1.462135E3,3.7756177E2,7.3285455E2,1.4252751E3,3.558929E1],"tree_param":{"num_deleted":"0","num_feature":"30","num_nodes":"83","size_leaf_vector":"1"}},{"base_weights":[3.300249E-2,1.1733348E0,-1.2857511E0,1.2215958E0,3.0777806E-1,-5.121467E-1,-1.4091638E0,-1.367457E-1,1.2219336E0,9.998227E-1,-6.9577396E-1,-1.2301538E-1,-1.4116776E0,8.697857E-1,-1.428475E0,-2.0471261E-1,1.2221396E0,1.0892754E0,-1.5033953E-1,-2.0199184E0,-1.3038163E-1,-8.404812E-1,4.1151255E-1,-6.562615E-1,-1.5384146E0,1.22365825E-1,-1.5239382E-1,-1.4657503E0,-8.3791023E-1,1.2243831E0,9.507112E-1,1.1941397E0,-2.5656572E-1,1.0221348E-1,-2.0959332E0,5.410329E-1,-1.6056083E0,-1.2059169E0,5.2804714E-1,8.07482E-1,-6.6763437E-1,3.311841E-1,-1.5422492E-1,-1.1033934E0,-1.5563385E-1,-1.493958E0,-1.145706E0,1.7852867E-1,-1.4635295E0,-1.382041E-1,1.2245363E-1,-2.5958973E-1,1.1621951E-1,1.20596185E-1,-1.2775324E-1,-1.9244966E-1,8.7118916E-2,-2.5887504E-1,-1.5426275E-1,7.7923074E-2,-2.021381E-1,-6.58864E-2,-1.648647E-1,1.388335E-3,-1.665317E-1,9.362083E-2,-2.0771706E-1,8.668865E-2,-2.6323304E-1,6.132454E-3,-1.6582899E-1,-1.5702882E-1,9.315695E-2,-1.552967E-1,1.3462156E-1,-9.2033796E-2,-1.5121925E-1,-1.5224893E-1,-9.844823E-3,-1.4449234E-1,8.924549E-2,-1.5275548E-1,5.592029E-2],"categories":[],"categories_nodes":[],"categories_segments":[],"categories_sizes":[],"default_left":[0,0,0,0,0,0,0,0,0,0,0,0,0,0,0,0,0,0,0,0,0,0,0,0,0,0,0,0,0,0,0,0,0,0,0,0,0,0,0,0,0,0,0,0,0,0,0,0,0,0,0,0,0,0,0,0,0,0,0,0,0,0,0,0,0,0,0,0,0,0,0,0,0,0,0,0,0,0,0,0,0,0,0],"id":6,"left_children":[1,3,5,7,9,11,13,-1,15,17,19,21,23,25,27,-1,29,31,-1,33,35,37,39,41,43,-1,-1,45,47,49,51,53,55,-1,57,59,61,63,65,67,69,71,-1,73,-1,75,77,79,81,-1,-1,-1,-1,-1,-1,-1,-1,-1,-1,-1,-1,-1,-1,-1,-1,-1,-1,-1,-1,-1,-1,-1,-1,-1,-1,-1,-1,-1,-1,-1,-1,-1,-1],"loss_changes":[9.282482E4,1.3823984E3,2.7320625E3,2.9089844E1,1.2157653E3,1.3788497E3,1.087625E3,0E0,2.3609375E1,2.3359534E2,5.347721E2,1.0554149E3,1.1287671E2,1.780893E2,5.376172E2,0E0,1.7929688E1,1.415409E2,0E0,5.1575134E1,4.9797903E2,5.882124E2,6.7450116E2,1.5155046E2,6.2194824E0,0E0,0E0,2.0613672E2,9.258901E2,1.409375E1,1.991374E2,2.8674072E1,1.3929446E2,0E0,5.2966064E1,2.1254984E2,5.320282E0,5.198218E2,2.6598102E2,2.3815161E2,3.062384E2,9.561203E1,0E0,5.023492E1,0E0,2.1989062E2,7.3739355E2,6.450989E2,1.1755664E2,0E0,0E0,0E0,0E0,0E0,0E0,0E0,0E0,0E0,0E0,0E0,0E0,0E0,0E0,0E0,0E0,0E0,0E0,0E0,0E0,0E0,0E0,0E0,0E0,0E0,0E0,0E0,0E0,0E0,0E0,0E0,0E0,0E0,0E0],"parents":[2147483647,0,0,1,1,2,2,3,3,4,4,5,5,6,6,8,8,9,9,10,10,11,11,12,12,13,13,14,14,16,16,17,17,19,19,20,20,21,21,22,22,23,23,24,24,27,27,28,28,29,29,30,30,31,31,32,32,34,34,35,35,36,36,37,37,38,38,39,39,40,40,41,41,43,43,45,45,46,46,47,47,48,48],"right_children":[2,4,6,8,10,12,14,-1,16,18,20,22,24,26,28,-1,30,32,-1,34,36,38,40,42,44,-1,-1,46,48,50,52,54,56,-1,58,60,62,64,66,68,70,72,-1,74,-1,76,78,80,82,-1,-1,-1,-1,-1,-1,-1,-1,-1,-1,-1,-1,-1,-1,-1,-1,-1,-1,-1,-1,-1,-1,-1,-1,-1,-1,-1,-1,-1,-1,-1,-1,-1,-1],"split_conditions":[-1.6779362E0,-1.6280909E0,-7.523242E-1,-4.2151392E-1,-9.4354314E-1,1.1231045E0,-7.6090813E0,-1.367457E-1,-1.6980476E0,1.5515733E0,-1.4356166E0,7.4000096E-1,-6.1507684E-1,-1.5518246E0,2.5213366E0,-2.0471261E-1,7.083775E-1,5.229034E-1,-1.5033953E-1,-3.0366871E0,-2.0741655E-1,1.174751E0,9.836135E-1,-4.271451E-1,-1.236947E0,1.22365825E-1,-1.5239382E-1,5.647512E-1,3.0480233E-1,-1.4714729E0,1.08926E0,8.455368E-1,-1.9015927E-2,1.0221348E-1,5.1638823E-2,6.686645E-1,-1.320436E-1,-9.847661E-1,-4.7221825E-1,1.0030621E0,5.3128953E4,-9.1662323E-1,-1.5422492E-1,7.470308E-1,-1.5563385E-1,-2.7921581E0,6.019412E-1,-6.131189E-1,2.1312854E0,-1.382041E-1,1.2245363E-1,-2.5958973E-1,1.1621951E-1,1.20596185E-1,-1.2775324E-1,-1.9244966E-1,8.7118916E-2,-2.5887504E-1,-1.5426275E-1,7.7923074E-2,-2.021381E-1,-6.58864E-2,-1.648647E-1,1.388335E-3,-1.665317E-1,9.362083E-2,-2.0771706E-1,8.668865E-2,-2.6323304E-1,6.132454E-3,-1.6582899E-1,-1.5702882E-1,9.315695E-2,-1.552967E-1,1.3462156E-1,-9.2033796E-2,-1.5121925E-1,-1.5224893E-1,-9.844823E-3,-1.4449234E-1,8.924549E-2,-1.5275548E-1,5.592029E-2],"split_indices":[14,10,14,11,12,3,7,0,24,10,3,4,6,16,4,0,7,16,0,16,10,19,1,10,10,0,0,20,10,24,4,3,21,0,12,7,10,10,7,12,0,1,0,15,0,12,22,1,7,0,0,0,0,0,0,0,0,0,0,0,0,0,0,0,0,0,0,0,0,0,0,0,0,0,0,0,0,0,0,0,0,0,0],"split_type":[0,0,0,0,0,0,0,0,0,0,0,0,0,0,0,0,0,0,0,0,0,0,0,0,0,0,0,0,0,0,0,0,0,0,0,0,0,0,0,0,0,0,0,0,0,0,0,0,0,0,0,0,0,0,0,0,0,0,0,0,0,0,0,0,0,0,0,0,0,0,0,0,0,0,0,0,0,0,0,0,0,0,0],"sum_hessian":[6.1724125E4,3.3101348E4,2.8622777E4,3.1352793E4,1.7485535E3,3.9386653E3,2.4684113E4,3.5619156E0,3.1349232E4,1.0348971E3,7.136563E2,2.7501184E3,1.1885469E3,2.0703937E2,2.4477072E4,1.3492283E0,3.1347883E4,9.9973627E2,3.516081E1,2.127724E2,5.008839E2,1.1738949E3,1.5762234E3,1.7164348E2,1.0169034E3,1.807999E2,2.623947E1,2.302246E4,1.4546115E3,3.1087406E4,2.6047635E2,9.275749E2,7.21614E1,4.883708E0,2.078887E2,3.4465543E2,1.562285E2,9.2658844E2,2.4730646E2,1.1532977E3,4.2292572E2,8.147011E1,9.017336E1,4.27167E1,9.741867E2,2.1154318E4,1.8681428E3,5.544749E2,9.0013654E2,1.2954865E0,3.1086111E4,1.402364E1,2.464527E2,9.23669E2,3.9058883E0,2.8824284E1,4.333712E1,1.0800887E2,9.987982E1,3.159785E2,2.8676945E1,7.502409E0,1.4872609E2,2.5376384E2,6.728246E2,2.1436275E2,3.294371E1,1.134454E3,1.8843695E1,2.441844E2,1.7874132E2,1.9163183E1,6.2306923E1,3.6401936E1,6.3147635E0,6.533317E2,2.0500986E4,1.3735221E3,4.9462073E2,1.6904547E2,3.8542944E2,8.7275616E2,2.738042E1],"tree_param":{"num_deleted":"0","num_feature":"30","num_nodes":"83","size_leaf_vector":"1"}},{"base_weights":[3.2761548E-2,1.146334E0,-1.2120942E0,1.1950508E0,2.9433244E-1,8.2506895E-1,-1.2551525E0,-1.2882708E-1,1.1953927E0,9.6960187E-1,-6.465722E-1,1.2786787E0,-9.596296E-1,-5.9652424E-1,-1.3463411E0,-1.8566401E-1,1.1956083E0,1.0572144E0,-1.4273316E-1,-1.842288E0,-1.2276913E-1,-1.2517543E-1,1.3062193E0,-1.4967436E-1,9.592731E-1,-2.666032E-1,-1.3920316E0,-1.3968142E0,-9.0774935E-1,1.197955E0,9.159531E-1,1.1647373E0,-2.3056333E-1,9.920822E-2,-1.9098767E0,5.057506E-1,-1.5130349E0,1.9077417E0,1.2740117E0,1.2055948E-1,-1.5332936E-1,3.2039714E-1,-9.066374E-1,-3.2426983E-1,-1.4438556E0,7.180697E-1,-1.4027236E0,1.8000318E-1,-1.1566023E0,-1.3027506E-1,1.1981133E-1,-2.2534588E-1,1.12708114E-1,1.176734E-1,-1.1856244E-1,-1.6461806E-1,8.269407E-2,-2.2772959E-1,-1.4635703E-1,7.281544E-2,-1.9432504E-1,-5.9753794E-2,-1.557126E-1,2.027171E-1,1.0229482E-1,-2.7086584E-2,1.2803553E-1,-1.9243099E-1,5.0144594E-2,-2.8846735E-2,-1.5957312E-1,9.5189534E-2,-1.4572287E-1,-4.2226207E-2,-1.4650998E-1,1.339506E-1,-1.4708751E-1,-1.4312828E-1,-9.997239E-2,9.0435736E-2,-1.6502021E-1,-7.047982E-2,-1.5585038E-1],"categories":[],"categories_nodes":[],"categories_segments":[],"categories_sizes":[],"default_left":[0,0,0,0,0,0,0,0,0,0,0,0,0,0,0,0,0,0,0,0,0,0,0,0,0,0,0,0,0,0,0,0,0,0,0,0,0,0,0,0,0,0,0,0,0,0,0,0,0,0,0,0,0,0,0,0,0,0,0,0,0,0,0,0,0,0,0,0,0,0,0,0,0,0,0,0,0,0,0,0,0,0,0],"id":7,"left_children":[1,3,5,7,9,11,13,-1,15,17,19,21,23,25,27,-1,29,31,-1,33,35,-1,37,-1,39,41,43,45,47,49,51,53,55,-1,57,59,61,63,65,-1,-1,67,69,71,73,75,77,79,81,-1,-1,-1,-1,-1,-1,-1,-1,-1,-1,-1,-1,-1,-1,-1,-1,-1,-1,-1,-1,-1,-1,-1,-1,-1,-1,-1,-1,-1,-1,-1,-1,-1,-1],"loss_changes":[8.0428055E4,1.2707656E3,2.4040117E3,2.6136719E1,1.0538647E3,4.6076657E2,1.6104727E3,0E0,2.1269531E1,2.042602E2,4.3394876E2,3.3207153E1,1.205899E2,8.564043E2,5.203828E2,0E0,1.7910156E1,1.2931897E2,0E0,4.233496E1,4.2291907E2,0E0,6.2614136E0,0E0,1.7745642E1,8.676787E2,5.2474243E1,2.6508984E2,6.592844E2,1.29296875E1,1.6666263E2,2.565393E1,1.1012835E2,0E0,3.0532959E1,1.8303766E2,5.1510925E0,1.23298645E-1,4.5496826E0,0E0,0E0,4.906762E2,4.7012958E2,6.728308E1,1.9177979E1,8.296203E1,2.4109766E2,6.0360974E2,3.587246E2,0E0,0E0,0E0,0E0,0E0,0E0,0E0,0E0,0E0,0E0,0E0,0E0,0E0,0E0,0E0,0E0,0E0,0E0,0E0,0E0,0E0,0E0,0E0,0E0,0E0,0E0,0E0,0E0,0E0,0E0,0E0,0E0,0E0,0E0],"parents":[2147483647,0,0,1,1,2,2,3,3,4,4,5,5,6,6,8,8,9,9,10,10,11,11,12,12,13,13,14,14,16,16,17,17,19,19,20,20,22,22,24,24,25,25,26,26,27,27,28,28,29,29,30,30,31,31,32,32,34,34,35,35,36,36,37,37,38,38,41,41,42,42,43,43,44,44,45,45,46,46,47,47,48,48],"right_children":[2,4,6,8,10,12,14,-1,16,18,20,22,24,26,28,-1,30,32,-1,34,36,-1,38,-1,40,42,44,46,48,50,52,54,56,-1,58,60,62,64,66,-1,-1,68,70,72,74,76,78,80,82,-1,-1,-1,-1,-1,-1,-1,-1,-1,-1,-1,-1,-1,-1,-1,-1,-1,-1,-1,-1,-1,-1,-1,-1,-1,-1,-1,-1,-1,-1,-1,-1,-1,-1],"split_conditions":[-1.6779362E0,-1.6280909E0,-1.4096453E0,-4.2151392E-1,-9.4354314E-1,3.185678E-2,-7.931723E-1,-1.2882708E-1,-1.6980476E0,1.5515733E0,-1.4356166E0,-1.0765961E0,2.6440668E0,1.1828748E0,1.7172713E0,-1.8566401E-1,7.083775E-1,5.229034E-1,-1.4273316E-1,-3.0366871E0,-2.0741655E-1,-1.2517543E-1,-3.408261E-1,-1.4967436E-1,-1.1055907E0,-2.5842795E-1,-1.3875822E0,-4.233692E0,-2.5306237E0,-1.4714729E0,1.08926E0,8.455368E-1,-1.9015927E-2,9.920822E-2,5.1638823E-2,7.719769E4,-1.320436E-1,1.2076241E0,-5.38978E-1,1.2055948E-1,-1.5332936E-1,4.4833E4,-8.312023E-2,-5.389276E-1,-1.9850775E0,-1.6041033E0,6.655717E-1,-4.8280805E-2,8.455368E-1,-1.3027506E-1,1.1981133E-1,-2.2534588E-1,1.12708114E-1,1.176734E-1,-1.1856244E-1,-1.6461806E-1,8.269407E-2,-2.2772959E-1,-1.4635703E-1,7.281544E-2,-1.9432504E-1,-5.9753794E-2,-1.557126E-1,2.027171E-1,1.0229482E-1,-2.7086584E-2,1.2803553E-1,-1.9243099E-1,5.0144594E-2,-2.8846735E-2,-1.5957312E-1,9.5189534E-2,-1.4572287E-1,-4.2226207E-2,-1.4650998E-1,1.339506E-1,-1.4708751E-1,-1.4312828E-1,-9.997239E-2,9.0435736E-2,-1.6502021E-1,-7.047982E-2,-1.5585038E-1],"split_indices":[14,10,17,11,12,16,14,0,24,10,3,4,29,3,4,0,7,16,0,16,10,0,11,0,28,13,10,23,12,24,4,3,21,0,12,0,10,2,28,0,0,0,5,17,19,16,20,26,3,0,0,0,0,0,0,0,0,0,0,0,0,0,0,0,0,0,0,0,0,0,0,0,0,0,0,0,0,0,0,0,0,0,0],"split_type":[0,0,0,0,0,0,0,0,0,0,0,0,0,0,0,0,0,0,0,0,0,0,0,0,0,0,0,0,0,0,0,0,0,0,0,0,0,0,0,0,0,0,0,0,0,0,0,0,0,0,0,0,0,0,0,0,0,0,0,0,0,0,0,0,0,0,0,0,0,0,0,0,0,0,0,0,0,0,0,0,0,0,0],"sum_hessian":[5.8016973E4,3.0623303E4,2.7393672E4,2.8966611E4,1.6566917E3,5.666436E2,2.682703E4,3.468933E0,2.8963143E4,9.644754E2,6.922163E2,4.520352E2,1.14608444E2,3.263472E3,2.3563557E4,1.4365559E0,2.8961705E4,9.3100433E2,3.3471077E1,2.1009743E2,4.8211887E2,4.3883076E0,4.4764688E2,8.971625E1,2.4892193E1,2.3077239E3,9.557479E2,2.112976E4,2.433797E3,2.8717436E4,2.4426994E2,8.5934863E2,7.1655685E1,4.5747395E0,2.0552269E2,3.3245627E2,1.496626E2,1.9790949E1,4.2785593E2,2.3123404E1,1.7687885E0,1.2039937E3,1.1037303E3,4.4576164E1,9.1117175E2,5.8540096E1,2.1071219E4,4.5318253E2,1.9806145E3,1.2975874E0,2.8716139E4,1.4651478E1,2.2961847E2,8.554815E2,3.867181E0,3.0401865E1,4.125382E1,1.1047351E2,9.504917E1,3.0542227E2,2.7033972E1,7.545337E0,1.4211726E2,1.6299694E1,3.4912548E0,1.579179E0,4.2627676E2,8.914268E1,1.114851E3,5.825537E2,5.2117664E2,2.103836E1,2.3537802E1,1.8987133E1,8.9218463E2,4.589786E1,1.2642237E1,1.967441E4,1.3968096E3,3.250435E2,1.2813904E2,9.3371606E2,1.0468984E3],"tree_param":{"num_deleted":"0","num_feature":"30","num_nodes":"83","size_leaf_vector":"1"}},{"base_weights":[3.2487486E-2,1.1227264E0,-1.1480175E0,1.1719643E0,2.821295E-1,-4.6321738E-1,-1.267959E0,-1.2200979E-1,1.1723108E0,9.4234705E-1,-6.052551E-1,2.5889263E-2,-1.0528275E0,8.2006663E-1,-1.2847868E0,-1.6982785E-1,1.172536E0,1.0282083E0,-1.3644025E-1,-1.6786966E0,-1.0200208E-1,7.389029E-1,-4.3372655E-1,9.9255316E-2,-1.2347411E0,1.1741555E-1,-1.3897866E-1,-1.3778207E0,-1.0635799E0,1.1750138E0,8.8786423E-1,1.1385549E0,-2.0868583E-1,1.0334797E-1,-1.7689056E0,4.9479294E-1,-1.4331775E0,-1.5772872E-1,8.725657E-1,2.096143E-1,-1.0226194E0,-1.1407238E0,8.119259E-1,-1.4064214E0,-4.4394922E-1,-1.3842053E0,-2.883804E-1,-4.6234444E-1,-1.2470051E0,-1.2318969E-1,1.1751779E-1,-1.9213086E-1,1.0927957E-1,1.1507479E-1,-1.1051363E-1,-1.2518017E-1,9.687317E-2,-2.0541346E-1,-1.4001992E-1,7.075723E-2,-1.8027039E-1,-5.426649E-2,-1.479526E-1,-8.325711E-3,1.1013277E-1,-1.5707442E-1,1.0832658E-1,-1.469732E-1,4.985911E-2,-1.484227E-1,1.2190179E-1,1.0894264E-1,-2.0301901E-1,7.4193306E-2,-1.4200932E-1,8.446514E-2,-1.5140618E-1,-1.1870593E-1,-1.4062399E-1,1.6664132E-1,-1.4131694E-1,3.181462E-2,-1.067639E-1,-1.3015497E-1,-3.1124746E-2],"categories":[],"categories_nodes":[],"categories_segments":[],"categories_sizes":[],"default_left":[0,0,0,0,0,0,0,0,0,0,0,0,0,0,0,0,0,0,0,0,0,0,0,0,0,0,0,0,0,0,0,0,0,0,0,0,0,0,0,0,0,0,0,0,0,0,0,0,0,0,0,0,0,0,0,0,0,0,0,0,0,0,0,0,0,0,0,0,0,0,0,0,0,0,0,0,0,0,0,0,0,0,0,0,0],"id":8,"left_children":[1,3,5,7,9,11,13,-1,15,17,19,21,23,25,27,-1,29,31,-1,33,35,37,39,41,43,-1,-1,45,47,49,51,53,55,-1,57,59,61,-1,63,65,67,69,71,73,75,77,79,81,83,-1,-1,-1,-1,-1,-1,-1,-1,-1,-1,-1,-1,-1,-1,-1,-1,-1,-1,-1,-1,-1,-1,-1,-1,-1,-1,-1,-1,-1,-1,-1,-1,-1,-1,-1,-1],"loss_changes":[6.997415E4,1.1695312E3,2.143461E3,2.3566406E1,9.176392E2,1.1224565E3,7.8153516E2,0E0,1.9253906E1,1.7924792E2,3.6089868E2,6.978138E2,3.6998596E2,1.4106656E2,4.5201562E2,0E0,1.7789062E1,1.18474E2,0E0,5.4007812E1,3.6306287E2,2.59756E2,4.907528E2,2.1441415E2,2.063064E2,0E0,0E0,1.0746875E2,7.193589E2,1.1902344E1,1.3706512E2,2.3034058E1,8.939433E1,0E0,1.8869507E1,1.555932E2,5.0350647E0,0E0,1.7276428E2,9.654565E2,4.606283E2,7.361738E1,1.2366704E2,3.7823242E1,3.7820047E2,6.530664E1,2.03799E2,7.2203455E2,2.5487549E2,0E0,0E0,0E0,0E0,0E0,0E0,0E0,0E0,0E0,0E0,0E0,0E0,0E0,0E0,0E0,0E0,0E0,0E0,0E0,0E0,0E0,0E0,0E0,0E0,0E0,0E0,0E0,0E0,0E0,0E0,0E0,0E0,0E0,0E0,0E0,0E0],"parents":[2147483647,0,0,1,1,2,2,3,3,4,4,5,5,6,6,8,8,9,9,10,10,11,11,12,12,13,13,14,14,16,16,17,17,19,19,20,20,21,21,22,22,23,23,24,24,27,27,28,28,29,29,30,30,31,31,32,32,34,34,35,35,36,36,38,38,39,39,40,40,41,41,42,42,43,43,44,44,45,45,46,46,47,47,48,48],"right_children":[2,4,6,8,10,12,14,-1,16,18,20,22,24,26,28,-1,30,32,-1,34,36,38,40,42,44,-1,-1,46,48,50,52,54,56,-1,58,60,62,-1,64,66,68,70,72,74,76,78,80,82,84,-1,-1,-1,-1,-1,-1,-1,-1,-1,-1,-1,-1,-1,-1,-1,-1,-1,-1,-1,-1,-1,-1,-1,-1,-1,-1,-1,-1,-1,-1,-1,-1,-1,-1,-1,-1],"split_conditions":[-1.6779362E0,-1.6280909E0,-7.185314E-1,-4.2151392E-1,-9.4354314E-1,-4.271451E-1,-7.6090813E0,-1.2200979E-1,-1.6980476E0,1.5515733E0,-1.3398198E0,-3.492474E-1,-9.988883E-1,-1.5518246E0,8.415521E-1,-1.6982785E-1,6.8834084E-1,5.229034E-1,-1.3644025E-1,-3.0366871E0,-2.0741655E-1,-3.6319548E-1,4.8393E4,9.3656105E-1,1.174751E0,1.1741555E-1,-1.3897866E-1,2.3165426E0,-7.2479856E-1,-1.4714729E0,1.08926E0,8.455368E-1,2.043728E-1,1.0334797E-1,5.1638823E-2,7.719769E4,-1.320436E-1,-1.5772872E-1,-3.5229972E-1,4.4105E4,9.118928E-1,2.2682188E0,6.614967E-1,-3.2951438E0,1.2388403E0,-4.4247153E-1,-8.137331E-1,6.6267127E-1,6.9360036E-1,-1.2318969E-1,1.1751779E-1,-1.9213086E-1,1.0927957E-1,1.1507479E-1,-1.1051363E-1,-1.2518017E-1,9.687317E-2,-2.0541346E-1,-1.4001992E-1,7.075723E-2,-1.8027039E-1,-5.426649E-2,-1.479526E-1,-8.325711E-3,1.1013277E-1,-1.5707442E-1,1.0832658E-1,-1.469732E-1,4.985911E-2,-1.484227E-1,1.2190179E-1,1.0894264E-1,-2.0301901E-1,7.4193306E-2,-1.4200932E-1,8.446514E-2,-1.5140618E-1,-1.1870593E-1,-1.4062399E-1,1.6664132E-1,-1.4131694E-1,3.181462E-2,-1.067639E-1,-1.3015497E-1,-3.1124746E-2],"split_indices":[14,10,14,11,12,10,7,0,24,10,3,12,8,16,4,0,7,16,0,16,10,4,0,4,19,0,0,19,12,24,4,3,21,0,12,0,10,0,29,0,19,19,19,12,19,14,21,14,23,0,0,0,0,0,0,0,0,0,0,0,0,0,0,0,0,0,0,0,0,0,0,0,0,0,0,0,0,0,0,0,0,0,0,0,0],"split_type":[0,0,0,0,0,0,0,0,0,0,0,0,0,0,0,0,0,0,0,0,0,0,0,0,0,0,0,0,0,0,0,0,0,0,0,0,0,0,0,0,0,0,0,0,0,0,0,0,0,0,0,0,0,0,0,0,0,0,0,0,0,0,0,0,0,0,0,0,0,0,0,0,0,0,0,0,0,0,0,0,0,0,0,0,0],"sum_hessian":[5.4366598E4,2.826391E4,2.610269E4,2.669959E4,1.5643193E3,3.8911587E3,2.2211531E4,3.358028E0,2.6696232E4,8.969346E2,6.673847E2,2.1273706E3,1.7637882E3,1.7719487E2,2.2034336E4,1.5029525E0,2.6694729E4,8.652816E2,3.1653008E1,2.122719E2,4.5511282E2,8.3359143E2,1.2937792E3,2.4058514E2,1.523203E3,1.5312761E2,2.4067253E1,1.5507186E4,6.527151E3,2.6461287E4,2.3344211E2,7.944831E2,7.0798485E1,6.4964476E0,2.0577544E2,3.1466843E2,1.4044443E2,4.4891056E1,7.887004E2,6.186136E2,6.751656E2,8.758862E1,1.5299652E2,1.250863E3,2.7234003E2,1.5416567E4,9.061836E1,1.5266338E3,5.000517E3,1.2927127E0,2.6459994E4,1.530248E1,2.1813962E2,7.906734E2,3.8096845E0,3.750675E1,3.3291733E1,1.13444405E2,9.233104E1,2.8862943E2,2.6038979E1,7.576794E0,1.3286763E2,1.5243329E2,6.362671E2,2.0337361E2,4.1524E2,5.2182513E2,1.5334047E2,7.678255E1,1.0806074E1,1.3994879E2,1.3047734E1,7.5730925E0,1.2432899E3,1.23652145E2,1.4868787E2,1.5553678E3,1.3861199E4,3.2921642E1,5.7696724E1,6.670227E2,8.596111E2,4.7247256E3,2.7579153E2],"tree_param":{"num_deleted":"0","num_feature":"30","num_nodes":"85","size_leaf_vector":"1"}},{"base_weights":[3.219137E-2,1.1019559E0,-1.0934136E0,1.1517664E0,2.7108946E-1,-5.592801E-1,-1.238256E0,1.1547298E0,8.423275E-1,-6.274747E-1,8.8452804E-1,-1.1308556E-1,-1.0921465E0,7.8895956E-1,-1.2545568E0,-1.6253279E-1,1.1550657E0,1.063453E0,-1.3755133E0,-1.5469004E-2,-1.4563823E0,1.0361353E0,-1.0851266E0,-7.672953E-1,4.345475E-1,1.2776303E-1,-1.2564613E0,1.1534273E-1,-1.3304219E-1,-1.3419442E0,-1.0510292E0,-8.375562E-2,1.155218E0,1.0969996E0,-1.9650851E-1,-2.1180315E-1,1.0047654E-1,3.4937155E-1,-1.3541934E0,1.4748608E-1,-1.6601552E0,-1.4479971E0,1.0931529E0,7.1989965E-1,-1.5137385E0,-1.1018802E0,5.9429693E-1,8.147733E-1,-5.7089174E-1,-1.4436114E-1,1.1898794E0,-7.735639E-2,-1.3123057E0,-9.601764E-1,-1.3563896E0,-5.076399E-1,-1.2432859E0,1.1555554E-1,5.7445664E-2,-4.556319E-2,1.147716E-1,6.916409E-2,-1.2601802E-1,7.851653E-2,-1.4661022E-1,1.0150136E-1,-1.4234127E-1,-1.8370622E-1,-1.3221623E-1,-4.1114856E-2,-1.4985059E-1,1.1130289E-1,-1.7619365E-1,1.0798087E-1,-8.79825E-2,-5.905202E-2,-1.5775052E-1,-4.3842318E-3,-1.339037E-1,-1.5523808E-1,9.958365E-2,8.8666E-2,-1.8658668E-1,7.66994E-3,-1.4689729E-1,1.6113245E-1,-1.571827E-1,-1.3984495E-1,1.094975E-1,-6.803441E-2,-1.3523903E-1,8.926626E-2,-1.3932659E-1,-1.22546606E-1,-1.3595869E-1,-8.165169E-2,8.243185E-2,-4.8196923E-2,-1.3148472E-1],"categories":[],"categories_nodes":[],"categories_segments":[],"categories_sizes":[],"default_left":[0,0,0,0,0,0,0,0,0,0,0,0,0,0,0,0,0,0,0,0,0,0,0,0,0,0,0,0,0,0,0,0,0,0,0,0,0,0,0,0,0,0,0,0,0,0,0,0,0,0,0,0,0,0,0,0,0,0,0,0,0,0,0,0,0,0,0,0,0,0,0,0,0,0,0,0,0,0,0,0,0,0,0,0,0,0,0,0,0,0,0,0,0,0,0,0,0,0,0],"id":9,"left_children":[1,3,5,7,9,11,13,15,17,19,21,23,25,27,29,-1,31,33,35,37,39,41,43,45,47,49,51,-1,-1,53,55,-1,57,59,-1,-1,-1,61,63,65,67,69,71,73,75,77,79,81,83,-1,85,87,89,91,93,95,97,-1,-1,-1,-1,-1,-1,-1,-1,-1,-1,-1,-1,-1,-1,-1,-1,-1,-1,-1,-1,-1,-1,-1,-1,-1,-1,-1,-1,-1,-1,-1,-1,-1,-1,-1,-1,-1,-1,-1,-1,-1,-1],"loss_changes":[6.1142203E4,1.0771426E3,1.9135352E3,2.1546875E1,8.12928E2,1.2552756E3,6.441719E2,2.4589844E1,1.1753494E2,3.0360425E2,2.627907E2,1.0303E3,4.8248267E2,1.2193744E2,3.4201172E2,0E0,8.3515625E0,2.4078888E1,4.0823853E1,1.691339E2,8.332416E1,1.16898865E2,4.9919563E1,5.975963E2,5.989599E2,4.7994333E2,1.3953735E2,0E0,0E0,7.3177734E1,6.057925E2,0E0,4.1035156E0,1.7378967E1,0E0,0E0,0E0,1.5080399E2,1.8905869E1,4.1748413E1,1.1062134E1,3.6309433E-1,4.7158142E1,8.313347E0,2.0900803E0,2.639607E2,2.2490253E2,2.2063452E2,2.5029506E2,0E0,2.0216812E2,1.5169794E2,5.0369385E1,3.9909543E2,3.7792969E0,6.2549414E2,2.3292676E2,0E0,0E0,0E0,0E0,0E0,0E0,0E0,0E0,0E0,0E0,0E0,0E0,0E0,0E0,0E0,0E0,0E0,0E0,0E0,0E0,0E0,0E0,0E0,0E0,0E0,0E0,0E0,0E0,0E0,0E0,0E0,0E0,0E0,0E0,0E0,0E0,0E0,0E0,0E0,0E0,0E0,0E0],"parents":[2147483647,0,0,1,1,2,2,3,3,4,4,5,5,6,6,7,7,8,8,9,9,10,10,11,11,12,12,13,13,14,14,16,16,17,17,18,18,19,19,20,20,21,21,22,22,23,23,24,24,25,25,26,26,29,29,30,30,32,32,33,33,37,37,38,38,39,39,40,40,41,41,42,42,43,43,44,44,45,45,46,46,47,47,48,48,50,50,51,51,52,52,53,53,54,54,55,55,56,56],"right_children":[2,4,6,8,10,12,14,16,18,20,22,24,26,28,30,-1,32,34,36,38,40,42,44,46,48,50,52,-1,-1,54,56,-1,58,60,-1,-1,-1,62,64,66,68,70,72,74,76,78,80,82,84,-1,86,88,90,92,94,96,98,-1,-1,-1,-1,-1,-1,-1,-1,-1,-1,-1,-1,-1,-1,-1,-1,-1,-1,-1,-1,-1,-1,-1,-1,-1,-1,-1,-1,-1,-1,-1,-1,-1,-1,-1,-1,-1,-1,-1,-1,-1,-1],"split_conditions":[-1.6779362E0,-1.6280909E0,-5.042347E-1,6.3353425E-1,-1.9015927E-2,8.05036E-1,-7.6090813E0,-1.4714729E0,-9.018161E-1,1.1727073E0,-2.5462157E-1,7.4000096E-1,-1.0196848E0,-1.5518246E0,8.415521E-1,-1.6253279E-1,-4.41666E-1,1.528466E0,5.1144737E-1,4.7989392E-1,-6.717286E-1,-8.57986E-1,-9.4283175E-1,1.1605409E0,9.836135E-1,1.7434254E-1,-1.705822E0,1.1534273E-1,-1.3304219E-1,-1.1069493E0,-6.350888E-1,-8.375562E-2,1.8535149E-1,1.0429579E0,-1.9650851E-1,-2.1180315E-1,1.0047654E-1,6.961773E-1,-1.3875822E0,-1.6652769E0,1.12958E0,-1.2875051E0,1.0098552E5,-8.350077E-1,-7.766138E-2,-7.7748275E-1,6.4360652E4,1.2817405E0,5.3128953E4,-1.4436114E-1,-1.9497682E-1,1.1727073E0,-1.7811669E0,-2.68808E-1,-1.072085E0,5.873509E-1,9.1314095E-1,1.1555554E-1,5.7445664E-2,-4.556319E-2,1.147716E-1,6.916409E-2,-1.2601802E-1,7.851653E-2,-1.4661022E-1,1.0150136E-1,-1.4234127E-1,-1.8370622E-1,-1.3221623E-1,-4.1114856E-2,-1.4985059E-1,1.1130289E-1,-1.7619365E-1,1.0798087E-1,-8.79825E-2,-5.905202E-2,-1.5775052E-1,-4.3842318E-3,-1.339037E-1,-1.5523808E-1,9.958365E-2,8.8666E-2,-1.8658668E-1,7.66994E-3,-1.4689729E-1,1.6113245E-1,-1.571827E-1,-1.3984495E-1,1.094975E-1,-6.803441E-2,-1.3523903E-1,8.926626E-2,-1.3932659E-1,-1.22546606E-1,-1.3595869E-1,-8.165169E-2,8.243185E-2,-4.8196923E-2,-1.3148472E-1],"split_indices":[14,10,14,7,21,3,7,24,12,2,12,4,10,16,4,0,11,13,9,3,7,4,17,19,1,15,19,0,0,8,12,0,12,4,0,0,0,15,10,12,10,17,0,10,17,13,0,18,0,0,5,2,16,14,17,20,4,0,0,0,0,0,0,0,0,0,0,0,0,0,0,0,0,0,0,0,0,0,0,0,0,0,0,0,0,0,0,0,0,0,0,0,0,0,0,0,0,0,0],"split_type":[0,0,0,0,0,0,0,0,0,0,0,0,0,0,0,0,0,0,0,0,0,0,0,0,0,0,0,0,0,0,0,0,0,0,0,0,0,0,0,0,0,0,0,0,0,0,0,0,0,0,0,0,0,0,0,0,0,0,0,0,0,0,0,0,0,0,0,0,0,0,0,0,0,0,0,0,0,0,0,0,0,0,0,0,0,0,0,0,0,0,0,0,0,0,0,0,0,0,0],"sum_hessian":[5.077499E4,2.6033248E4,2.4741738E4,2.4560459E4,1.472789E3,5.279065E3,1.9462674E4,2.4324781E4,2.3567857E2,5.975198E2,8.752692E2,2.8738584E3,2.4052068E3,1.5487224E2,1.93078E4,2.353506E0,2.4322428E4,2.1478442E2,2.0894156E1,3.4431845E2,2.5320131E2,8.131535E2,6.211571E1,1.3093229E3,1.5645355E3,2.855372E2,2.1196697E3,1.3253595E2,2.233629E1,1.3504053E4,5.803748E3,1.4401679E0,2.4320988E4,2.1306213E2,1.7222823E0,1.601006E1,4.884096E0,2.7115894E2,7.315951E1,2.8574179E1,2.2462714E2,1.7697912E1,7.954556E2,1.1788947E1,5.0326763E1,1.0512013E3,2.581216E2,1.1353654E3,4.2917014E2,1.1501549E2,1.705217E2,9.595936E1,2.0237102E3,4.9479944E2,1.3009253E4,1.517726E3,4.286022E3,2.430588E4,1.5106886E1,6.486929E0,2.0657521E2,2.2407907E2,4.707987E1,3.3376427E0,6.982186E1,1.8636211E1,9.937967E0,1.445394E2,8.008774E1,1.2466539E0,1.645126E1,7.905622E2,4.893418E0,9.889086E0,1.8998617E0,3.9143996E0,4.6412365E1,1.9269725E2,8.5850397E2,4.0222317E1,2.178993E2,1.1063652E3,2.900013E1,2.498919E2,1.7927824E2,1.4830624E2,2.221545E1,4.5026447E1,5.0932907E1,1.2177728E2,1.901933E3,9.35431E1,4.0125635E2,3.1928384E2,1.268997E4,1.2323376E3,2.853883E2,3.6892157E2,3.9171003E3],"tree_param":{"num_deleted":"0","num_feature":"30","num_nodes":"99","size_leaf_vector":"1"}},{"base_weights":[3.181386E-2,1.0835687E0,-1.0454378E0,1.1340493E0,2.6068005E-1,-5.2876353E-1,-1.1875842E0,1.1371166E0,8.178625E-1,8.983323E-1,-5.526483E-1,-4.7323674E-2,-9.895644E-1,7.7350366E-1,-1.2030222E0,-9.3574923E-1,1.137596E0,1.0375974E0,-1.2706496E0,1.0910162E0,-9.929651E-2,-3.0512564E-2,-1.3935058E0,7.7205807E-1,-4.6906558E-1,1.6347732E-1,-1.0945965E0,1.1351911E-1,-1.2805238E-1,-1.2949431E0,-9.932356E-1,7.586013E-2,-2.0315027E-1,-8.057874E-2,1.137753E0,1.0723709E0,-1.7761807E-1,-1.937872E-1,9.765714E-2,1.1123055E0,-1.7940077E-1,-1.6364572E0,9.481511E-1,4.905389E-1,-1.3264623E0,-1.5462817E0,9.986698E-1,-1.4101566E-1,9.16667E-1,1.1976694E-1,-9.5468044E-1,6.5208423E-1,-1.3542435E-1,-1.2186457E0,-4.5305708E-1,-9.0858406E-1,-1.3098749E0,1.0133062E-2,-1.1002853E0,1.13812126E-1,5.3821374E-2,-4.1322652E-2,1.12524845E-1,1.1261622E-1,-1.0971818E-1,-1.0051861E-1,-1.9595385E-1,1.1057886E-1,-1.3917892E-1,-1.5909211E-1,7.615762E-2,-5.115803E-2,-1.358197E-1,-9.573012E-2,-1.6478188E-1,-8.280586E-3,1.08802296E-1,1.17113285E-1,-1.8212048E-2,-1.3813193E-1,1.0994887E-1,-1.188847E-1,1.1754413E-1,9.3193196E-2,-1.5971176E-1,-1.360414E-1,-8.2198784E-2,3.9015498E-2,-1.2840763E-1,7.808887E-2,-1.341415E-1,-1.1748266E-1,-1.313198E-1,6.4808436E-2,-1.3438214E-1,-1.2481886E-1,-3.1007437E-2],"categories":[],"categories_nodes":[],"categories_segments":[],"categories_sizes":[],"default_left":[0,0,0,0,0,0,0,0,0,0,0,0,0,0,0,0,0,0,0,0,0,0,0,0,0,0,0,0,0,0,0,0,0,0,0,0,0,0,0,0,0,0,0,0,0,0,0,0,0,0,0,0,0,0,0,0,0,0,0,0,0,0,0,0,0,0,0,0,0,0,0,0,0,0,0,0,0,0,0,0,0,0,0,0,0,0,0,0,0,0,0,0,0,0,0,0,0],"id":10,"left_children":[1,3,5,7,9,11,13,15,17,19,21,23,25,27,29,31,33,35,37,39,41,43,45,47,49,51,53,-1,-1,55,57,-1,-1,-1,59,61,-1,-1,-1,63,-1,65,67,69,71,73,75,-1,77,79,81,83,-1,85,87,89,91,93,95,-1,-1,-1,-1,-1,-1,-1,-1,-1,-1,-1,-1,-1,-1,-1,-1,-1,-1,-1,-1,-1,-1,-1,-1,-1,-1,-1,-1,-1,-1,-1,-1,-1,-1,-1,-1,-1,-1],"loss_changes":[5.3600453E4,9.9406055E2,1.7158047E3,2.094336E1,7.1872034E2,1.1190143E3,5.558086E2,2.3261719E1,1.02393234E2,1.4940216E2,2.6743036E2,8.532025E2,3.1231006E2,1.082555E2,3.4938477E2,1.21486025E1,7.7304688E0,2.1456955E1,3.400339E1,4.198114E1,2.05452E2,2.5512923E2,8.682864E1,2.6605405E2,4.66189E2,1.6109319E2,1.8744458E2,0E0,0E0,7.173633E1,5.95563E2,0E0,0E0,0E0,4.3183594E0,1.6019913E1,0E0,0E0,0E0,2.104004E1,0E0,8.572342E0,2.9554047E1,1.5326302E2,2.1068878E0,1.1563843E1,1.5025129E0,0E0,2.2039111E2,1.0862208E3,4.4701447E2,1.0478088E2,0E0,1.1016406E2,2.69829E2,3.4739557E2,3.9179688E0,4.6343097E2,5.8516943E2,0E0,0E0,0E0,0E0,0E0,0E0,0E0,0E0,0E0,0E0,0E0,0E0,0E0,0E0,0E0,0E0,0E0,0E0,0E0,0E0,0E0,0E0,0E0,0E0,0E0,0E0,0E0,0E0,0E0,0E0,0E0,0E0,0E0,0E0,0E0,0E0,0E0,0E0],"parents":[2147483647,0,0,1,1,2,2,3,3,4,4,5,5,6,6,7,7,8,8,9,9,10,10,11,11,12,12,13,13,14,14,15,15,16,16,17,17,18,18,19,19,20,20,21,21,22,22,23,23,24,24,25,25,26,26,29,29,30,30,34,34,35,35,39,39,41,41,42,42,43,43,44,44,45,45,46,46,48,48,49,49,50,50,51,51,53,53,54,54,55,55,56,56,57,57,58,58],"right_children":[2,4,6,8,10,12,14,16,18,20,22,24,26,28,30,32,34,36,38,40,42,44,46,48,50,52,54,-1,-1,56,58,-1,-1,-1,60,62,-1,-1,-1,64,-1,66,68,70,72,74,76,-1,78,80,82,84,-1,86,88,90,92,94,96,-1,-1,-1,-1,-1,-1,-1,-1,-1,-1,-1,-1,-1,-1,-1,-1,-1,-1,-1,-1,-1,-1,-1,-1,-1,-1,-1,-1,-1,-1,-1,-1,-1,-1,-1,-1,-1,-1],"split_conditions":[-1.6779362E0,-1.6280909E0,-5.042347E-1,6.3353425E-1,-9.4354314E-1,-4.271451E-1,-7.6090813E0,-1.3043712E0,-9.018161E-1,2.5705385E-1,5.2577287E-1,-3.8807502E-1,-1.2224823E0,-1.5518246E0,8.415521E-1,-4.4311705E0,-4.41666E-1,1.528466E0,5.1144737E-1,1.2599896E0,6.0034517E-2,-1.8466286E-1,1.2657853E0,-3.6319548E-1,4.8393E4,7.296899E-1,1.1170225E0,1.1351911E-1,-1.2805238E-1,-1.1069493E0,-2.5306237E0,7.586013E-2,-2.0315027E-1,-8.057874E-2,1.8535149E-1,1.0429579E0,-1.7761807E-1,-1.937872E-1,9.765714E-2,8.6533284E-1,-1.7940077E-1,7.136313E-2,-2.8425995E-1,-1.8723807E-1,-1.320436E-1,-1.4922581E0,5.4927987E-1,-1.4101566E-1,8.3469117E-1,4.4472E4,2.4695895E0,1.4727764E0,-1.3542435E-1,8.904166E-1,7.482553E-1,-2.68808E-1,-1.072085E0,-6.818486E-2,4.978385E-1,1.13812126E-1,5.3821374E-2,-4.1322652E-2,1.12524845E-1,1.1261622E-1,-1.0971818E-1,-1.0051861E-1,-1.9595385E-1,1.1057886E-1,-1.3917892E-1,-1.5909211E-1,7.615762E-2,-5.115803E-2,-1.358197E-1,-9.573012E-2,-1.6478188E-1,-8.280586E-3,1.08802296E-1,1.17113285E-1,-1.8212048E-2,-1.3813193E-1,1.0994887E-1,-1.188847E-1,1.1754413E-1,9.3193196E-2,-1.5971176E-1,-1.360414E-1,-8.2198784E-2,3.9015498E-2,-1.2840763E-1,7.808887E-2,-1.341415E-1,-1.1748266E-1,-1.313198E-1,6.4808436E-2,-1.3438214E-1,-1.2481886E-1,-3.1007437E-2],"split_indices":[14,10,14,7,12,10,7,24,12,7,5,12,8,16,4,3,11,13,9,16,29,10,29,4,0,3,19,0,0,8,12,0,0,0,12,4,0,0,0,3,0,18,9,25,10,10,3,0,17,0,4,9,0,4,3,14,17,6,20,0,0,0,0,0,0,0,0,0,0,0,0,0,0,0,0,0,0,0,0,0,0,0,0,0,0,0,0,0,0,0,0,0,0,0,0,0,0],"split_type":[0,0,0,0,0,0,0,0,0,0,0,0,0,0,0,0,0,0,0,0,0,0,0,0,0,0,0,0,0,0,0,0,0,0,0,0,0,0,0,0,0,0,0,0,0,0,0,0,0,0,0,0,0,0,0,0,0,0,0,0,0,0,0,0,0,0,0,0,0,0,0,0,0,0,0,0,0,0,0,0,0,0,0,0,0,0,0,0,0,0,0,0,0,0,0,0,0],"sum_hessian":[4.730624E4,2.3936383E4,2.3369854E4,2.255251E4,1.3838733E3,5.0432715E3,1.8326584E4,2.2333264E4,2.1924536E2,7.756537E2,6.0821967E2,2.4669407E3,2.5763306E3,1.4276035E2,1.8183822E4,4.713433E0,2.232855E4,1.9882945E2,2.0415907E1,6.5001495E2,1.2563871E2,3.7586206E2,2.323576E2,8.380003E2,1.6289404E3,2.1504214E2,2.3612883E3,1.2176623E2,2.0994116E1,1.2640184E4,5.5436387E3,1.9719381E0,2.7414947E0,1.3893036E0,2.232716E4,1.970136E2,1.8158598E0,1.58481045E1,4.5678024E0,6.458634E2,4.15155E0,5.0688904E1,7.494981E1,2.6852142E2,1.0734063E2,2.1874133E2,1.3616267E1,5.153668E1,7.864636E2,7.3656793E2,8.9237244E2,1.6310374E2,5.1938393E1,1.9779324E3,3.8335602E2,4.7263434E2,1.216755E4,5.345211E2,5.0091177E3,2.2312555E4,1.4605891E1,6.537164E0,1.9047643E2,6.4232544E2,3.5379868E0,1.8551746E1,3.2137157E1,7.07134E1,4.2364044E0,3.0375996E1,2.3814542E2,4.6653214E0,1.0267531E2,3.369821E1,1.8504312E2,1.044733E0,1.2571534E1,6.385235E2,1.4794012E2,2.9072385E2,4.4584412E2,8.043872E2,8.798524E1,1.4557663E2,1.7527113E1,1.4553501E3,5.2258234E2,1.905454E2,1.9281061E2,9.622691E1,3.7640744E2,3.007459E2,1.1866804E4,3.6368344E2,1.7083769E2,4.2188906E3,7.902269E2],"tree_param":{"num_deleted":"0","num_feature":"30","num_nodes":"97","size_leaf_vector":"1"}},{"base_weights":[3.144601E-2,1.0766108E0,-9.948351E-1,1.1189259E0,3.1171435E-1,6.3810784E-1,-1.0423967E0,-1.0970866E-1,1.1193254E0,8.858662E-1,-5.7760626E-1,1.2356867E0,-1.0131514E0,-6.380354E-1,-1.1727129E0,1.1219541E0,8.206217E-1,1.0156366E0,-7.7980375E-1,-1.3836293E0,4.5109767E-1,1.2962211E0,-1.3236764E-1,-1.2920505E0,6.6783863E-1,-2.610601E-1,-1.0420443E0,-1.2618608E0,-9.739752E-1,-1.2529954E-1,1.1222126E0,-1.5842955E-1,1.0125496E0,1.066372E0,-1.8711637E-1,1.3766731E-2,-1.4194842E-1,-4.2248288E-1,-1.5013609E0,8.885235E-1,-1.3658449E-1,1.2022613E0,2.08443E0,-4.65434E-3,-1.3091345E-1,-1.7959411E-1,1.063553E0,2.9029974E-1,-7.73703E-1,1.9658877E-2,-1.1728325E0,-9.6001047E-1,-1.2722106E0,-4.5027846E-1,-1.1761999E0,1.12257935E-1,2.8445566E-2,1.071929E-1,-1.7852463E-1,1.1006588E-1,-8.962529E-2,8.4138855E-2,-1.145131E-1,9.818113E-2,-1.5003505E-1,-1.1931582E-1,-1.6006728E-1,-1.5958375E-1,1.0749077E-1,-1.09978795E-1,1.22773744E-1,1.6738299E-1,3.2003483E-1,1.1188749E-1,-4.797719E-4,7.102906E-2,-6.171861E-2,-1.0738414E-1,8.4678076E-2,-1.2977561E-1,1.0165518E-1,-7.431855E-2,-1.2787993E-1,-1.3131337E-1,7.6621704E-2,-1.2749796E-1,-1.12506025E-1,-7.198782E-2,7.166187E-2,-3.457233E-2,-1.2597923E-1],"categories":[],"categories_nodes":[],"categories_segments":[],"categories_sizes":[],"default_left":[0,0,0,0,0,0,0,0,0,0,0,0,0,0,0,0,0,0,0,0,0,0,0,0,0,0,0,0,0,0,0,0,0,0,0,0,0,0,0,0,0,0,0,0,0,0,0,0,0,0,0,0,0,0,0,0,0,0,0,0,0,0,0,0,0,0,0,0,0,0,0,0,0,0,0,0,0,0,0,0,0,0,0,0,0,0,0,0,0,0,0],"id":11,"left_children":[1,3,5,7,9,11,13,-1,15,17,19,21,23,25,27,29,31,33,35,37,39,41,-1,43,45,47,49,51,53,-1,55,-1,57,59,-1,61,-1,63,65,67,-1,69,71,-1,-1,-1,73,75,77,79,81,83,85,87,89,-1,-1,-1,-1,-1,-1,-1,-1,-1,-1,-1,-1,-1,-1,-1,-1,-1,-1,-1,-1,-1,-1,-1,-1,-1,-1,-1,-1,-1,-1,-1,-1,-1,-1,-1,-1],"loss_changes":[4.7151406E4,7.0456055E2,1.7232598E3,1.9496094E1,5.8416644E2,6.2127954E2,1.1349453E3,0E0,1.5279297E1,1.5102185E2,3.729616E2,7.326691E1,7.940033E1,8.0008887E2,2.875254E2,1.3964844E1,8.64053E1,9.649487E1,2.5806955E1,2.7884064E1,1.5860376E2,3.0944153E1,0E0,3.003601E0,2.5794296E1,7.689898E2,3.5220508E2,3.391797E1,5.3443164E2,0E0,5.9628906E0,0E0,3.0281342E1,4.36969E1,0E0,2.3659302E1,0E0,4.520748E1,4.9503784E0,7.59006E1,0E0,2.5156372E1,1.6061005E1,0E0,0E0,0E0,1.2900162E0,5.0016956E2,6.8653375E2,3.679363E2,1.0185791E2,2.3078625E2,2.9960938E0,4.437205E2,2.525044E2,0E0,0E0,0E0,0E0,0E0,0E0,0E0,0E0,0E0,0E0,0E0,0E0,0E0,0E0,0E0,0E0,0E0,0E0,0E0,0E0,0E0,0E0,0E0,0E0,0E0,0E0,0E0,0E0,0E0,0E0,0E0,0E0,0E0,0E0,0E0,0E0],"parents":[2147483647,0,0,1,1,2,2,3,3,4,4,5,5,6,6,8,8,9,9,10,10,11,11,12,12,13,13,14,14,15,15,16,16,17,17,18,18,19,19,20,20,21,21,23,23,24,24,25,25,26,26,27,27,28,28,30,30,32,32,33,33,35,35,37,37,38,38,39,39,41,41,42,42,46,46,47,47,48,48,49,49,50,50,51,51,52,52,53,53,54,54],"right_children":[2,4,6,8,10,12,14,-1,16,18,20,22,24,26,28,30,32,34,36,38,40,42,-1,44,46,48,50,52,54,-1,56,-1,58,60,-1,62,-1,64,66,68,-1,70,72,-1,-1,-1,74,76,78,80,82,84,86,88,90,-1,-1,-1,-1,-1,-1,-1,-1,-1,-1,-1,-1,-1,-1,-1,-1,-1,-1,-1,-1,-1,-1,-1,-1,-1,-1,-1,-1,-1,-1,-1,-1,-1,-1,-1,-1],"split_conditions":[-1.8397725E0,-1.6280909E0,-1.2875051E0,-2.7862477E-1,-6.306461E-2,1.3839191E-1,-4.243399E-1,-1.0970866E-1,7.083775E-1,-1.010009E-1,-1.6713046E-1,6.987596E-1,3.1257467E0,8.05036E-1,8.415521E-1,-1.4714729E0,1.08926E0,1.2599896E0,-3.693931E-1,1.2680654E-1,-3.21255E-2,6.356539E-1,-1.3236764E-1,-1.6779362E0,-1.7491084E0,-2.4862897E-1,-1.0460505E0,-1.4624512E0,-6.350888E-1,-1.2529954E-1,1.8535149E-1,-1.5842955E-1,-5.256188E-1,8.6533284E-1,-1.8711637E-1,-2.833066E-1,-1.4194842E-1,-1.2872111E0,-9.035403E-2,-3.2271636E-1,-1.3658449E-1,-1.0283186E0,-2.612086E-1,-4.65434E-3,-1.3091345E-1,-1.7959411E-1,-9.5573924E-2,-5.659152E-2,2.3563864E0,-7.8720164E-1,-6.87159E-1,1.0407764E0,7.8730685E-1,5.873509E-1,9.1314095E-1,1.12257935E-1,2.8445566E-2,1.071929E-1,-1.7852463E-1,1.1006588E-1,-8.962529E-2,8.4138855E-2,-1.145131E-1,9.818113E-2,-1.5003505E-1,-1.1931582E-1,-1.6006728E-1,-1.5958375E-1,1.0749077E-1,-1.09978795E-1,1.22773744E-1,1.6738299E-1,3.2003483E-1,1.1188749E-1,-4.797719E-4,7.102906E-2,-6.171861E-2,-1.0738414E-1,8.4678076E-2,-1.2977561E-1,1.0165518E-1,-7.431855E-2,-1.2787993E-1,-1.3131337E-1,7.6621704E-2,-1.2749796E-1,-1.12506025E-1,-7.198782E-2,7.166187E-2,-3.457233E-2,-1.2597923E-1],"split_indices":[14,10,17,11,7,16,14,0,7,12,29,10,7,3,4,24,4,16,16,7,9,1,0,14,5,13,10,8,12,0,12,0,12,3,0,10,0,13,18,26,0,4,7,0,0,0,2,9,4,1,19,19,23,20,4,0,0,0,0,0,0,0,0,0,0,0,0,0,0,0,0,0,0,0,0,0,0,0,0,0,0,0,0,0,0,0,0,0,0,0,0],"split_type":[0,0,0,0,0,0,0,0,0,0,0,0,0,0,0,0,0,0,0,0,0,0,0,0,0,0,0,0,0,0,0,0,0,0,0,0,0,0,0,0,0,0,0,0,0,0,0,0,0,0,0,0,0,0,0,0,0,0,0,0,0,0,0,0,0,0,0,0,0,0,0,0,0,0,0,0,0,0,0,0,0,0,0,0,0,0,0,0,0,0,0],"sum_hessian":[4.395657E4,2.1777902E4,2.2178668E4,2.0635838E4,1.1420648E3,6.273485E2,2.1551318E4,3.2244627E0,2.0632613E4,6.940105E2,4.4805435E2,4.6082935E2,1.6651915E2,5.254112E3,1.6297207E4,2.044989E4,1.8272295E2,6.44211E2,4.9799484E1,2.5102391E2,1.9703043E2,4.5066373E2,1.016563E1,1.4302135E2,2.3497812E1,2.718842E3,2.5352695E3,1.1246853E4,5.050355E3,1.6986957E0,2.0448191E4,1.2968531E1,1.6975443E2,6.337043E2,1.050673E1,2.266293E1,2.7136553E1,2.7893482E1,2.2313043E2,1.592115E2,3.7818924E1,4.0491986E2,4.574386E1,1.985591E0,1.4103575E2,2.7620955E0,2.0735718E1,1.3101633E3,1.4086787E3,2.7815256E2,2.257117E3,3.759538E2,1.0870898E4,1.4078092E3,3.6425454E3,2.0438904E4,9.286962E0,1.6683054E2,2.923883E0,6.232553E2,1.0448961E1,1.3380955E1,9.281976E0,1.2151319E1,1.5742164E1,5.7548775E1,1.6558167E2,1.0583206E1,1.486283E2,3.9705162E0,4.0094934E2,3.526728E1,1.0476577E1,1.966987E1,1.065848E0,8.957987E2,4.1436465E2,1.1888271E3,2.1985162E2,1.1968479E2,1.5846777E2,4.481375E2,1.8089794E3,3.1230655E2,6.3647224E1,1.0662592E4,2.0830678E2,1.1439047E3,2.639045E2,3.3358365E2,3.308962E3],"tree_param":{"num_deleted":"0","num_feature":"30","num_nodes":"91","size_leaf_vector":"1"}},{"base_weights":[3.106544E-2,1.0624312E0,-9.545978E-1,1.1050503E0,3.031727E-1,-4.8115605E-1,-1.1151199E0,-1.033374E-1,1.1054612E0,8.6810374E-1,-5.555411E-1,-8.090968E-2,-9.8061764E-1,-4.7799626E-1,-1.162565E0,1.1088578E0,8.4775394E-1,1.0505924E0,-2.963439E-1,-1.3199733E0,4.370585E-1,-1.1939808E0,1.9972682E-1,5.71555E-2,-1.126079E0,-1.1969855E0,4.27165E-1,-1.2145356E0,-7.418439E-1,-9.1064614E-1,1.1092491E0,9.3922865E-1,-1.6849421E-1,1.0746509E0,-1.516136E-1,3.2306468E-1,-1.4947484E0,-4.1259468E-1,-1.436879E0,8.6271733E-1,-1.3231018E-1,-1.3145608E0,-3.827861E-1,8.736744E-1,-2.0898402E-1,-1.330884E-1,9.5759094E-1,-9.809901E-2,-1.1736553E0,1.51736E-1,-1.2659311E-1,1.0114601E0,-1.3622137E0,8.58354E-1,-1.2195129E0,-1.1733536E0,4.087991E-1,6.33535E-2,-1.8431513E-1,1.1094084E-1,-4.3464236E-2,9.9974826E-2,-2.633604E-1,1.08979754E-1,-1.0212683E-1,8.0517866E-2,-1.2556551E-1,-1.7851649E-1,-1.19211696E-1,9.525195E-2,-1.3629349E-1,-1.0864919E-1,-1.506124E-1,-1.5110943E-1,1.0468097E-1,-1.4098649E-1,-1.2741913E-1,-1.4616077E-1,8.653517E-2,1.04930654E-1,-7.339674E-2,-1.5347062E-1,-2.099174E-3,1.326617E-1,-1.4802122E-1,-1.285615E-1,1.0317618E-1,-8.478795E-2,-1.2639453E-1,1.14747874E-1,-1.7602886E-1,6.90003E-2,-1.4494075E-1,-1.06624894E-1,1.151276E-1,-1.1063913E-1,-1.2447434E-1,-1.2572174E-1,5.7519566E-2,-1.3508993E-1,1.04854345E-1],"categories":[],"categories_nodes":[],"categories_segments":[],"categories_sizes":[],"default_left":[0,0,0,0,0,0,0,0,0,0,0,0,0,0,0,0,0,0,0,0,0,0,0,0,0,0,0,0,0,0,0,0,0,0,0,0,0,0,0,0,0,0,0,0,0,0,0,0,0,0,0,0,0,0,0,0,0,0,0,0,0,0,0,0,0,0,0,0,0,0,0,0,0,0,0,0,0,0,0,0,0,0,0,0,0,0,0,0,0,0,0,0,0,0,0,0,0,0,0,0,0],"id":12,"left_children":[1,3,5,7,9,11,13,-1,15,17,19,21,23,25,27,29,31,33,35,37,39,41,43,45,47,49,51,53,55,57,59,61,-1,63,-1,65,67,69,71,73,-1,75,77,79,81,-1,83,85,87,-1,-1,89,91,93,95,97,99,-1,-1,-1,-1,-1,-1,-1,-1,-1,-1,-1,-1,-1,-1,-1,-1,-1,-1,-1,-1,-1,-1,-1,-1,-1,-1,-1,-1,-1,-1,-1,-1,-1,-1,-1,-1,-1,-1,-1,-1,-1,-1,-1,-1],"loss_changes":[4.1515176E4,6.454297E2,1.5864297E3,1.774414E1,5.1569336E2,1.0572512E3,4.708164E2,0E0,1.5597656E1,1.3652118E2,3.2081732E2,9.1774695E2,3.5523804E2,7.049641E2,3.1641016E2,1.5746094E1,5.9503677E1,3.5862305E1,6.55266E1,2.4725464E1,1.3927829E2,5.7362488E1,6.4657336E2,3.639751E2,1.0081177E2,1.1486536E2,5.031443E2,1.3429688E2,7.9397205E2,7.159741E0,5.0664062E0,5.494554E1,0E0,1.8567078E1,0E0,4.560457E1,5.1164246E-1,3.8458714E1,3.4837952E0,6.6727066E1,0E0,1.8341064E-1,1.0624988E2,2.5095752E2,3.642348E2,0E0,1.6083221E2,1.2526749E2,5.6941162E1,0E0,0E0,1.3863193E2,2.221547E1,1.8999222E1,3.5396484E1,1.711947E2,4.929315E2,0E0,0E0,0E0,0E0,0E0,0E0,0E0,0E0,0E0,0E0,0E0,0E0,0E0,0E0,0E0,0E0,0E0,0E0,0E0,0E0,0E0,0E0,0E0,0E0,0E0,0E0,0E0,0E0,0E0,0E0,0E0,0E0,0E0,0E0,0E0,0E0,0E0,0E0,0E0,0E0,0E0,0E0,0E0,0E0],"parents":[2147483647,0,0,1,1,2,2,3,3,4,4,5,5,6,6,8,8,9,9,10,10,11,11,12,12,13,13,14,14,15,15,16,16,17,17,18,18,19,19,20,20,21,21,22,22,23,23,24,24,25,25,26,26,27,27,28,28,29,29,30,30,31,31,33,33,35,35,36,36,37,37,38,38,39,39,41,41,42,42,43,43,44,44,46,46,47,47,48,48,51,51,52,52,53,53,54,54,55,55,56,56],"right_children":[2,4,6,8,10,12,14,-1,16,18,20,22,24,26,28,30,32,34,36,38,40,42,44,46,48,50,52,54,56,58,60,62,-1,64,-1,66,68,70,72,74,-1,76,78,80,82,-1,84,86,88,-1,-1,90,92,94,96,98,100,-1,-1,-1,-1,-1,-1,-1,-1,-1,-1,-1,-1,-1,-1,-1,-1,-1,-1,-1,-1,-1,-1,-1,-1,-1,-1,-1,-1,-1,-1,-1,-1,-1,-1,-1,-1,-1,-1,-1,-1,-1,-1,-1,-1],"split_conditions":[-1.8397725E0,-1.6280909E0,-4.4247153E-1,-2.7862477E-1,-6.306461E-2,8.05036E-1,-2.5306237E0,-1.033374E-1,5.354463E-1,-5.256188E-1,-1.6713046E-1,-4.250373E-1,-1.0196848E0,1.7172713E0,4.978385E-1,-1.3043712E0,-4.5369232E-1,1.2599896E0,3.107821E-1,1.3948219E-1,-3.21255E-2,1.174751E0,-5.0225854E-1,1.4214577E-1,-1.705822E0,-4.233692E0,-8.939632E-2,-9.701487E0,1.134246E0,7.5602236E3,5.6830764E-1,1.528466E0,-1.6849421E-1,1.0816785E0,-1.516136E-1,4.7989392E-1,2.2185193E-2,-1.2872111E0,-6.374055E-1,-3.2271636E-1,-1.3231018E-1,-2.5842795E-1,-5.9547186E-1,7.782655E-1,-9.0086037E-1,-1.330884E-1,-8.312023E-2,1.1727073E0,1.1009372E0,1.51736E-1,-1.2659311E-1,2.7116075E-1,-7.112831E-1,7.53003E4,-5.8661455E-1,1.7014699E0,-4.8280805E-2,6.33535E-2,-1.8431513E-1,1.1094084E-1,-4.3464236E-2,9.9974826E-2,-2.633604E-1,1.08979754E-1,-1.0212683E-1,8.0517866E-2,-1.2556551E-1,-1.7851649E-1,-1.19211696E-1,9.525195E-2,-1.3629349E-1,-1.0864919E-1,-1.506124E-1,-1.5110943E-1,1.0468097E-1,-1.4098649E-1,-1.2741913E-1,-1.4616077E-1,8.653517E-2,1.04930654E-1,-7.339674E-2,-1.5347062E-1,-2.099174E-3,1.326617E-1,-1.4802122E-1,-1.285615E-1,1.0317618E-1,-8.478795E-2,-1.2639453E-1,1.14747874E-1,-1.7602886E-1,6.90003E-2,-1.4494075E-1,-1.06624894E-1,1.151276E-1,-1.1063913E-1,-1.2447434E-1,-1.2572174E-1,5.7519566E-2,-1.3508993E-1,1.04854345E-1],"split_indices":[14,10,14,11,7,3,12,0,7,12,29,4,10,4,20,24,12,16,16,7,9,19,12,15,19,23,26,23,15,0,12,13,0,3,0,3,12,13,17,26,0,13,4,18,6,0,5,2,3,0,0,7,17,0,17,19,26,0,0,0,0,0,0,0,0,0,0,0,0,0,0,0,0,0,0,0,0,0,0,0,0,0,0,0,0,0,0,0,0,0,0,0,0,0,0,0,0,0,0,0,0],"split_type":[0,0,0,0,0,0,0,0,0,0,0,0,0,0,0,0,0,0,0,0,0,0,0,0,0,0,0,0,0,0,0,0,0,0,0,0,0,0,0,0,0,0,0,0,0,0,0,0,0,0,0,0,0,0,0,0,0,0,0,0,0,0,0,0,0,0,0,0,0,0,0,0,0,0,0,0,0,0,0,0,0,0,0,0,0,0,0,0,0,0,0,0,0,0,0,0,0,0,0,0,0],"sum_hessian":[4.0836105E4,1.9955375E4,2.088073E4,1.8894334E4,1.0610411E3,5.288094E3,1.5592636E4,3.1466417E0,1.8891188E4,6.39992E2,4.2104916E2,2.9362644E3,2.35183E3,1.0814395E3,1.4511196E4,1.864218E4,2.4900734E2,5.533677E2,8.662432E1,2.376769E2,1.8337227E2,5.9058984E2,2.3456743E3,2.8919763E2,2.0626323E3,6.0252136E2,4.7891812E2,1.2914068E4,1.597128E3,3.161265E0,1.8639018E4,2.4093454E2,8.0728035E0,5.4880493E2,4.5627365E0,5.7589153E1,2.903517E1,2.7643986E1,2.100329E2,1.4807356E2,3.5298702E1,5.13622E2,7.6967834E1,8.850784E2,1.4605961E3,1.13601135E2,1.755965E2,9.137421E1,1.9712582E3,1.4404831E1,5.881165E2,3.613571E2,1.1756105E2,3.0523542E1,1.2883545E4,1.1615197E3,4.3560843E2,1.3109717E0,1.8502932E0,1.8637377E4,1.6415699E0,2.3762955E2,3.3049812E0,5.4534393E2,3.4609957E0,4.449203E1,1.3097123E1,1.2316747E1,1.6718422E1,1.13450775E1,1.6298908E1,3.7412415E1,1.7262048E2,1.0138072E1,1.379355E2,1.4273343E2,3.708886E2,4.1192383E1,3.5775455E1,7.982214E2,8.685703E1,1.8050568E2,1.2800903E3,1.5290594E2,2.2690554E1,4.448322E1,4.6890987E1,4.300352E2,1.5412229E3,3.4501224E2,1.6344852E1,4.5095477E0,1.130515E2,3.683247E0,2.6840294E1,2.3576768E3,1.0525868E4,1.1086288E3,5.289087E1,1.1584642E2,3.19762E2],"tree_param":{"num_deleted":"0","num_feature":"30","num_nodes":"101","size_leaf_vector":"1"}},{"base_weights":[3.0603379E-2,1.0496446E0,-9.2092615E-1,1.092629E0,2.9492155E-1,-4.6389306E-1,-1.0864388E0,1.096524E0,8.050105E-1,8.506851E-1,-5.358833E-1,-8.0218464E-2,-9.537536E-1,-4.7827125E-1,-1.1319362E0,-8.9465624E-1,1.0969661E0,9.015686E-1,-1.587623E-1,1.0346899E0,-2.8607112E-1,-1.269802E0,4.1763896E-1,-1.1860018E0,1.7616194E-1,5.1002968E-2,-1.0884292E0,-1.1657119E0,3.9088687E-1,-1.1845537E0,-7.141077E-1,6.1567593E-2,-1.7034404E-1,1.0974773E0,1.5442352E-1,9.6262354E-1,-2.319047E-1,1.0591516E0,-1.4265956E-1,-1.1150835E0,5.3228956E-1,-3.8711798E-1,-1.386623E0,8.284226E-1,-1.2854277E-1,-1.2736103E-1,-5.458648E-1,3.6506498E-1,-1.239532E0,-1.2931369E-1,8.737157E-1,-6.531007E-1,-1.2032281E0,1.4329794E-1,-1.2341579E-1,9.6019125E-1,-1.3068275E0,8.379369E-1,-1.1894444E0,-1.1450629E0,3.707009E-1,-2.9110614E-2,1.0975831E-1,-1.4374568E-1,9.7766265E-2,1.0026628E-1,-2.1791497E-1,-9.543336E-2,1.07512094E-1,4.716095E-2,-1.3802831E-1,8.673241E-2,-1.1317463E-1,9.240542E-2,-1.2610136E-1,-1.0439713E-1,-1.4542067E-1,-1.4380498E-1,1.0076785E-1,8.617868E-2,-1.3252263E-1,5.1278394E-2,-1.0661812E-1,-1.3744263E-1,3.713343E-2,-1.3546112E-1,1.30134E-1,4.598493E-2,-1.2402343E-1,-1.23871386E-1,-5.67451E-3,-1.095219E-1,1.1490276E-1,6.452858E-2,-1.3931954E-1,-1.02675274E-1,1.1309808E-1,-1.0740613E-1,-1.2154335E-1,-1.2247678E-1,2.6855648E-2,9.524401E-2,-1.3127017E-1],"categories":[],"categories_nodes":[],"categories_segments":[],"categories_sizes":[],"default_left":[0,0,0,0,0,0,0,0,0,0,0,0,0,0,0,0,0,0,0,0,0,0,0,0,0,0,0,0,0,0,0,0,0,0,0,0,0,0,0,0,0,0,0,0,0,0,0,0,0,0,0,0,0,0,0,0,0,0,0,0,0,0,0,0,0,0,0,0,0,0,0,0,0,0,0,0,0,0,0,0,0,0,0,0,0,0,0,0,0,0,0,0,0,0,0,0,0,0,0,0,0,0,0],"id":13,"left_children":[1,3,5,7,9,11,13,15,17,19,21,23,25,27,29,31,33,35,-1,37,39,41,43,45,47,49,51,53,55,57,59,-1,-1,61,63,65,-1,67,-1,69,71,73,75,77,-1,-1,79,81,83,-1,85,87,89,-1,-1,91,93,95,97,99,101,-1,-1,-1,-1,-1,-1,-1,-1,-1,-1,-1,-1,-1,-1,-1,-1,-1,-1,-1,-1,-1,-1,-1,-1,-1,-1,-1,-1,-1,-1,-1,-1,-1,-1,-1,-1,-1,-1,-1,-1,-1,-1],"loss_changes":[3.667999E4,5.9225E2,1.4792656E3,1.8478516E1,4.5555453E2,9.777378E2,3.9681445E2,1.5990234E1,5.56463E1,1.239064E2,2.774272E2,8.27637E2,3.0925293E2,5.987105E2,2.928789E2,6.344487E0,8.041016E0,4.6711716E1,0E0,3.2147217E1,5.6980927E1,2.2543823E1,1.2198491E2,3.011908E1,6.342989E2,3.0084775E2,9.991284E1,1.0125696E2,4.2936426E2,1.18353516E2,7.001869E2,0E0,0E0,2.8222656E0,1.5037565E1,3.0199448E1,0E0,1.7244751E1,0E0,1.8160717E1,2.46773E1,3.2731113E1,3.050476E0,5.827247E1,0E0,0E0,7.5628174E1,4.4281937E2,6.1191803E1,0E0,1.6253658E2,2.767605E2,6.475098E1,0E0,0E0,1.3022989E2,1.9724335E1,1.7121298E1,3.41875E1,1.21055664E2,4.1874652E2,0E0,0E0,0E0,0E0,0E0,0E0,0E0,0E0,0E0,0E0,0E0,0E0,0E0,0E0,0E0,0E0,0E0,0E0,0E0,0E0,0E0,0E0,0E0,0E0,0E0,0E0,0E0,0E0,0E0,0E0,0E0,0E0,0E0,0E0,0E0,0E0,0E0,0E0,0E0,0E0,0E0,0E0],"parents":[2147483647,0,0,1,1,2,2,3,3,4,4,5,5,6,6,7,7,8,8,9,9,10,10,11,11,12,12,13,13,14,14,15,15,16,16,17,17,19,19,20,20,21,21,22,22,23,23,24,24,25,25,26,26,27,27,28,28,29,29,30,30,33,33,34,34,35,35,37,37,39,39,40,40,41,41,42,42,43,43,46,46,47,47,48,48,50,50,51,51,52,52,55,55,56,56,57,57,58,58,59,59,60,60],"right_children":[2,4,6,8,10,12,14,16,18,20,22,24,26,28,30,32,34,36,-1,38,40,42,44,46,48,50,52,54,56,58,60,-1,-1,62,64,66,-1,68,-1,70,72,74,76,78,-1,-1,80,82,84,-1,86,88,90,-1,-1,92,94,96,98,100,102,-1,-1,-1,-1,-1,-1,-1,-1,-1,-1,-1,-1,-1,-1,-1,-1,-1,-1,-1,-1,-1,-1,-1,-1,-1,-1,-1,-1,-1,-1,-1,-1,-1,-1,-1,-1,-1,-1,-1,-1,-1,-1],"split_conditions":[-1.8397725E0,-1.6280909E0,-4.243399E-1,5.354463E-1,-6.306461E-2,8.05036E-1,-2.5306237E0,-1.3043712E0,-4.5369232E-1,-5.256188E-1,-1.7189214E-1,-4.575155E-1,-1.0460505E0,1.7172713E0,4.978385E-1,7.5602236E3,1.8535149E-1,1.528466E0,-1.587623E-1,1.2599896E0,-3.286209E-1,1.3948219E-1,-3.21255E-2,1.174751E0,1.2321743E0,1.4214577E-1,-6.87159E-1,-4.233692E0,-8.939632E-2,-9.701487E0,1.134246E0,6.1567593E-2,-1.7034404E-1,-1.6754173E-1,2.2152174E0,9.1833664E4,-2.319047E-1,-4.622356E-1,-1.4265956E-1,-4.9518815E-1,1.6462384E-1,-1.2872111E0,-6.374055E-1,-3.2271636E-1,-1.2854277E-1,-1.2736103E-1,1.1983391E0,8.6350316E-1,1.338659E0,-1.2931369E-1,-1.2722322E0,1.2226952E0,1.7111919E0,1.4329794E-1,-1.2341579E-1,8.827556E-1,-7.112831E-1,7.53003E4,-5.8661455E-1,1.5426073E0,7.149353E-2,-2.9110614E-2,1.0975831E-1,-1.4374568E-1,9.7766265E-2,1.0026628E-1,-2.1791497E-1,-9.543336E-2,1.07512094E-1,4.716095E-2,-1.3802831E-1,8.673241E-2,-1.1317463E-1,9.240542E-2,-1.2610136E-1,-1.0439713E-1,-1.4542067E-1,-1.4380498E-1,1.0076785E-1,8.617868E-2,-1.3252263E-1,5.1278394E-2,-1.0661812E-1,-1.3744263E-1,3.713343E-2,-1.3546112E-1,1.30134E-1,4.598493E-2,-1.2402343E-1,-1.23871386E-1,-5.67451E-3,-1.095219E-1,1.1490276E-1,6.452858E-2,-1.3931954E-1,-1.02675274E-1,1.1309808E-1,-1.0740613E-1,-1.2154335E-1,-1.2247678E-1,2.6855648E-2,9.524401E-2,-1.3127017E-1],"split_indices":[14,10,14,7,7,3,12,24,12,12,29,4,10,4,20,0,12,13,0,16,1,7,9,19,1,15,19,23,26,23,15,0,0,11,4,0,0,11,0,17,16,13,17,26,0,0,19,5,15,0,4,3,15,0,0,2,17,0,17,19,24,0,0,0,0,0,0,0,0,0,0,0,0,0,0,0,0,0,0,0,0,0,0,0,0,0,0,0,0,0,0,0,0,0,0,0,0,0,0,0,0,0,0],"split_type":[0,0,0,0,0,0,0,0,0,0,0,0,0,0,0,0,0,0,0,0,0,0,0,0,0,0,0,0,0,0,0,0,0,0,0,0,0,0,0,0,0,0,0,0,0,0,0,0,0,0,0,0,0,0,0,0,0,0,0,0,0,0,0,0,0,0,0,0,0,0,0,0,0,0,0,0,0,0,0,0,0,0,0,0,0,0,0,0,0,0,0,0,0,0,0,0,0,0,0,0,0,0,0],"sum_hessian":[3.7826156E4,1.8265068E4,1.956109E4,1.7280434E4,9.8463586E2,5.201605E3,1.4359484E4,1.7046764E4,2.3366826E2,5.899603E2,3.946755E2,2.9176057E3,2.2839993E3,1.0002725E3,1.3359212E4,3.3353078E0,1.704343E4,2.2520306E2,8.465194E0,5.0784595E2,8.211439E1,2.2283186E2,1.7184364E2,5.4845636E2,2.3691494E3,2.7003162E2,2.0139677E3,5.583317E2,4.419408E2,1.1863407E4,1.4958054E3,1.2464454E0,2.0888624E0,1.7034027E4,9.402318E0,2.2170126E2,3.501807E0,5.0341238E2,4.433537E0,4.0611607E1,4.150278E1,2.6548529E1,1.9628334E2,1.3886311E2,3.298054E1,4.8156082E2,6.689554E1,2.0908933E3,2.782561E2,1.0230877E2,1.6772285E2,4.2166446E2,1.5923031E3,1.381672E1,5.44515E2,3.312839E2,1.1065691E2,2.8207558E1,1.1835199E4,1.0704849E3,4.2532053E2,1.0874218E0,1.703294E4,2.9506361E0,6.4516816E0,2.1958372E2,2.1175442E0,3.4988394E0,4.9991354E2,5.7043114E0,3.4907295E1,3.4945656E1,6.557125E0,1.059486E1,1.595367E1,3.5046E1,1.6123734E2,9.663066E0,1.2920004E2,2.3801126E1,4.309441E1,1.8958629E3,1.9503033E2,2.5689078E2,2.136532E1,2.6655376E1,1.4106747E2,1.4569908E2,2.7596536E2,1.5444202E3,4.788298E1,2.7471163E1,3.038127E2,4.414207E0,1.0624271E2,3.4908588E0,2.47167E1,2.1834897E3,9.65171E3,1.01347516E3,5.7009712E1,3.1641138E2,1.0890914E2],"tree_param":{"num_deleted":"0","num_feature":"30","num_nodes":"103","size_leaf_vector":"1"}},{"base_weights":[3.0078124E-2,1.0381637E0,-8.898407E-1,1.0815462E0,2.8733954E-1,-4.3935615E-1,-1.0577703E0,1.0857193E0,7.7927285E-1,-4.9524862E-1,8.5448116E-1,-7.545067E-2,-9.217639E-1,-1.1731669E0,-8.16181E-1,-8.4462965E-1,1.086178E0,8.744972E-1,-1.5031622E-1,2.555651E-1,-1.1368507E0,9.7658265E-1,-9.2714834E-1,-1.1258284E0,1.6774365E-1,4.6401024E-2,-1.0541624E0,-8.232987E-1,-1.1857015E0,1.4542441E-1,-9.4523734E-1,5.9845965E-2,-1.5959024E-1,1.0867065E0,1.4372483E-1,9.362786E-1,-2.0817006E-1,-1.3782918E-1,5.5955434E-1,-1.3736236E0,-8.456423E-2,-1.2543593E-1,1.0187714E0,6.365268E-1,-1.311511E-1,-1.24485075E-1,-3.5080868E-1,1.1449611E0,-9.0070456E-2,-1.2587593E-1,8.1419384E-1,-1.2125655E0,-7.27237E-1,8.8924974E-1,-1.2125863E0,-1.1892593E0,-1.0064927E0,8.3794296E-1,-8.7866503E-1,-1.1560167E0,-4.0638947E-1,-2.742278E-2,1.0868204E-1,-1.3474712E-1,9.570689E-2,-1.5802367E-1,9.853902E-2,7.4944116E-2,-1.4630452E-1,-1.1205228E-1,-1.4307289E-1,1.00969724E-1,-1.2474759E-1,-1.1570676E-1,1.039562E-1,9.461637E-2,-6.210177E-2,-1.357613E-1,7.972494E-2,1.2981677E-1,-7.337976E-3,3.940419E-2,-7.289167E-2,1.2113637E-1,-1.3677174E-1,-4.284096E-2,-1.218943E-1,5.4882348E-2,-1.1271375E-1,2.0972164E-1,-1.2772918E-1,-2.4711156E-2,-1.2189823E-1,-1.072609E-1,-1.1920792E-1,1.0696991E-1,-1.2277656E-1,-1.3226111E-1,1.0292425E-1,7.3369496E-2,-1.2914221E-1,9.98962E-2,-1.1754032E-1,3.2363288E-2,-1.1482741E-1],"categories":[],"categories_nodes":[],"categories_segments":[],"categories_sizes":[],"default_left":[0,0,0,0,0,0,0,0,0,0,0,0,0,0,0,0,0,0,0,0,0,0,0,0,0,0,0,0,0,0,0,0,0,0,0,0,0,0,0,0,0,0,0,0,0,0,0,0,0,0,0,0,0,0,0,0,0,0,0,0,0,0,0,0,0,0,0,0,0,0,0,0,0,0,0,0,0,0,0,0,0,0,0,0,0,0,0,0,0,0,0,0,0,0,0,0,0,0,0,0,0,0,0,0,0],"id":14,"left_children":[1,3,5,7,9,11,13,15,17,19,21,23,25,27,29,31,33,35,-1,37,39,41,43,45,47,49,51,53,55,57,59,-1,-1,61,63,65,-1,-1,67,69,71,-1,73,75,-1,-1,77,79,81,-1,83,85,87,89,91,93,95,97,99,101,103,-1,-1,-1,-1,-1,-1,-1,-1,-1,-1,-1,-1,-1,-1,-1,-1,-1,-1,-1,-1,-1,-1,-1,-1,-1,-1,-1,-1,-1,-1,-1,-1,-1,-1,-1,-1,-1,-1,-1,-1,-1,-1,-1,-1],"loss_changes":[3.2460537E4,5.436953E2,1.3840762E3,1.906836E1,4.0593542E2,8.726982E2,3.7070312E2,1.4701172E1,4.8815094E1,1.8553165E2,1.162254E2,7.24366E2,2.7405994E2,3.85791E1,5.3534814E2,5.574279E0,7.5996094E0,4.0381577E1,0E0,8.918197E1,5.159131E1,4.8017975E1,2.157787E1,4.8739563E1,5.802833E2,2.5968277E2,9.6503174E1,2.112413E2,4.354492E0,3.6326654E2,4.3141235E2,0E0,0E0,2.7070312E0,1.3272005E1,2.7117096E1,0E0,0E0,5.9010715E1,8.444519E-1,5.112363E1,0E0,2.3275543E1,3.5013144E0,0E0,0E0,8.472577E1,8.9839294E1,5.641086E2,0E0,1.4301642E2,5.8050537E0,3.150997E2,1.5699326E2,1.2875366E0,1.5263672E0,8.215654E1,1.27616425E2,1.3851584E2,1.15343506E2,5.8027026E2,0E0,0E0,0E0,0E0,0E0,0E0,0E0,0E0,0E0,0E0,0E0,0E0,0E0,0E0,0E0,0E0,0E0,0E0,0E0,0E0,0E0,0E0,0E0,0E0,0E0,0E0,0E0,0E0,0E0,0E0,0E0,0E0,0E0,0E0,0E0,0E0,0E0,0E0,0E0,0E0,0E0,0E0,0E0,0E0],"parents":[2147483647,0,0,1,1,2,2,3,3,4,4,5,5,6,6,7,7,8,8,9,9,10,10,11,11,12,12,13,13,14,14,15,15,16,16,17,17,19,19,20,20,21,21,22,22,23,23,24,24,25,25,26,26,27,27,28,28,29,29,30,30,33,33,34,34,35,35,38,38,39,39,40,40,42,42,43,43,46,46,47,47,48,48,50,50,51,51,52,52,53,53,54,54,55,55,56,56,57,57,58,58,59,59,60,60],"right_children":[2,4,6,8,10,12,14,16,18,20,22,24,26,28,30,32,34,36,-1,38,40,42,44,46,48,50,52,54,56,58,60,-1,-1,62,64,66,-1,-1,68,70,72,-1,74,76,-1,-1,78,80,82,-1,84,86,88,90,92,94,96,98,100,102,104,-1,-1,-1,-1,-1,-1,-1,-1,-1,-1,-1,-1,-1,-1,-1,-1,-1,-1,-1,-1,-1,-1,-1,-1,-1,-1,-1,-1,-1,-1,-1,-1,-1,-1,-1,-1,-1,-1,-1,-1,-1,-1,-1,-1],"split_conditions":[-1.8397725E0,-1.6280909E0,-4.243399E-1,5.354463E-1,-1.9015927E-2,8.05036E-1,8.415521E-1,-1.3043712E0,-4.5369232E-1,1.0201924E0,-2.5462157E-1,-4.250373E-1,-1.0460505E0,-1.4624512E0,-2.5306237E0,7.5602236E3,1.8535149E-1,1.528466E0,-1.5031622E-1,1.367956E-1,1.3742092E-1,-8.57986E-1,-9.7843504E-1,1.174751E0,-6.938138E-1,1.4214577E-1,8.904166E-1,-2.68808E-1,7.8730685E-1,-3.281245E-1,9.448227E-1,5.9845965E-2,-1.5959024E-1,-1.6754173E-1,2.2152174E0,-5.7766806E-2,-2.0817006E-1,-1.3782918E-1,7.063904E-1,2.2614649E-1,1.5022385E0,-1.2543593E-1,-5.2326953E-1,-8.625684E-1,-1.311511E-1,-1.24485075E-1,-5.9547186E-1,2.2808428E-1,-2.4862897E-1,-1.2587593E-1,3.2465735E-1,-1.0196848E0,-2.1226488E-1,-7.578722E-1,-2.5550488E-1,-1.072085E0,-1.7530428E0,1.5932646E-1,-4.132996E-1,-9.701487E0,2.5107447E-2,-2.742278E-2,1.0868204E-1,-1.3474712E-1,9.570689E-2,-1.5802367E-1,9.853902E-2,7.4944116E-2,-1.4630452E-1,-1.1205228E-1,-1.4307289E-1,1.00969724E-1,-1.2474759E-1,-1.1570676E-1,1.039562E-1,9.461637E-2,-6.210177E-2,-1.357613E-1,7.972494E-2,1.2981677E-1,-7.337976E-3,3.940419E-2,-7.289167E-2,1.2113637E-1,-1.3677174E-1,-4.284096E-2,-1.218943E-1,5.4882348E-2,-1.1271375E-1,2.0972164E-1,-1.2772918E-1,-2.4711156E-2,-1.2189823E-1,-1.072609E-1,-1.1920792E-1,1.0696991E-1,-1.2277656E-1,-1.3226111E-1,1.0292425E-1,7.3369496E-2,-1.2914221E-1,9.98962E-2,-1.1754032E-1,3.2363288E-2,-1.1482741E-1],"split_indices":[14,10,14,7,21,3,4,24,12,2,12,4,10,8,12,0,12,13,0,4,28,4,17,19,17,15,4,14,23,29,15,0,0,11,4,4,0,0,15,18,2,0,11,10,0,0,4,16,13,0,25,10,6,12,14,17,13,11,17,23,24,0,0,0,0,0,0,0,0,0,0,0,0,0,0,0,0,0,0,0,0,0,0,0,0,0,0,0,0,0,0,0,0,0,0,0,0,0,0,0,0,0,0,0,0],"split_type":[0,0,0,0,0,0,0,0,0,0,0,0,0,0,0,0,0,0,0,0,0,0,0,0,0,0,0,0,0,0,0,0,0,0,0,0,0,0,0,0,0,0,0,0,0,0,0,0,0,0,0,0,0,0,0,0,0,0,0,0,0,0,0,0,0,0,0,0,0,0,0,0,0,0,0,0,0,0,0,0,0,0,0,0,0,0,0,0,0,0,0,0,0,0,0,0,0,0,0,0,0,0,0,0,0],"sum_hessian":[3.500129E4,1.6700287E4,1.8301002E4,1.5787639E4,9.126485E2,4.9705967E3,1.3330405E4,1.5570088E4,2.1755081E2,3.8353815E2,5.2911035E2,2.8339534E3,2.1366436E3,9.018709E3,4.3116963E3,3.2606466E0,1.5566827E4,2.0943013E2,8.120676E0,1.7700525E2,2.0653288E2,4.9559717E2,3.3513195E1,5.32107E2,2.3018464E3,2.5711777E2,1.8795256E3,3.142412E2,8.704468E3,5.1018134E2,3.8015151E3,1.1859703E0,2.0746763E0,1.5557948E4,8.879482E0,2.0581216E2,3.617972E0,2.721237E1,1.4979288E2,1.6834789E2,3.8184994E1,8.664897E0,4.8693228E2,6.48296E0,2.7030235E1,4.6074298E2,7.1364044E1,4.7979446E2,1.8220519E3,9.499598E1,1.621218E2,1.264255E3,6.152706E2,5.7963715E1,2.562775E2,8.529494E3,1.7497372E2,3.0447107E2,2.0571027E2,2.7317861E3,1.0697291E3,1.0998114E0,1.5556848E4,2.9020743E0,5.977408E0,3.3429031E0,2.0246925E2,1.3751234E2,1.2280542E1,3.47871E1,1.3356079E2,1.9741058E1,1.8443933E1,4.0914407E0,4.8284082E2,5.400774E0,1.0821865E0,3.792377E1,3.344027E1,4.2614157E2,5.3652874E1,1.0367754E3,7.8527655E2,1.3753189E2,2.4589897E1,1.0749036E1,1.253506E3,1.4672064E2,4.6854996E2,3.7235092E1,2.0728622E1,1.9474436E0,2.5433005E2,2.103218E2,8.319173E3,1.6482742E1,1.5849098E2,2.4284615E1,2.8018646E2,4.1769154E1,1.6394112E2,2.3905916E1,2.7078801E3,5.394592E2,5.3026984E2],"tree_param":{"num_deleted":"0","num_feature":"30","num_nodes":"105","size_leaf_vector":"1"}},{"base_weights":[2.9577434E-2,1.0275613E0,-8.6051553E-1,1.0716096E0,2.7880907E-1,-4.162309E-1,-1.0309107E0,1.0760566E0,7.5549203E-1,8.872676E-1,-4.2997175E-1,-1.3663094E-1,-1.0124761E0,-1.1507933E0,-7.8484786E-1,-7.9901874E-1,1.0765324E0,8.4945214E-1,-1.4304046E-1,1.0417184E0,5.1907655E-2,1.0853077E-1,-1.2382371E0,-6.447552E-1,3.4772876E-1,3.243302E-1,-1.1461401E0,-7.972199E-1,-1.1636465E0,-2.6442143E-1,-1.0177462E0,5.818547E-2,-1.5012579E-1,1.0770788E0,1.3399199E-1,9.118536E-1,-1.8953748E-1,1.0592128E0,-1.3294634E-1,-1.3447196E0,9.6797466E-1,4.5914128E-1,-1.2115753E0,-1.3464433E0,4.9714196E-1,-1.2732204E0,-2.2951692E-1,6.399894E-1,-3.9961493E-1,-1.1444352E0,1.5747308E0,-4.6874598E-1,-1.1754237E0,8.1175447E-1,-1.1868471E0,-1.1674578E0,-9.7442836E-1,-5.580465E-1,7.1704215E-1,-1.0011303E-1,-1.1195585E0,-2.5831524E-2,1.0772016E-1,-1.270008E-1,9.372427E-2,9.549953E-2,-1.9821867E-1,-6.293116E-2,1.06543854E-1,-3.4906495E-2,-1.3860807E-1,-1.1945355E-1,1.06241785E-1,8.294653E-2,-9.807903E-2,-4.2602323E-2,-1.2269423E-1,-5.01596E-2,-1.3906984E-1,9.6026145E-2,-9.5359854E-2,-3.1357072E-3,-1.2988207E-1,-1.1540361E-1,3.63509E-2,-2.9854584E-2,8.524771E-2,2.7547702E-1,-6.0192574E-2,2.4190558E-2,-1.2153727E-1,1.8824366E-1,-1.1699649E-1,-1.1863966E-1,9.8357186E-2,-9.19553E-2,-1.18462734E-1,1.8697564E-1,-1.23621814E-1,-2.327367E-2,-1.1936456E-1,-1.1707749E-1,-1.0510092E-1,9.458508E-2,-1.2006563E-1,2.6112814E-2,-1.1200785E-1,1.22250475E-1,-1.437071E-1,-1.18580416E-1,1.2239239E-1,-3.3150874E-2,-1.1441578E-1],"categories":[],"categories_nodes":[],"categories_segments":[],"categories_sizes":[],"default_left":[0,0,0,0,0,0,0,0,0,0,0,0,0,0,0,0,0,0,0,0,0,0,0,0,0,0,0,0,0,0,0,0,0,0,0,0,0,0,0,0,0,0,0,0,0,0,0,0,0,0,0,0,0,0,0,0,0,0,0,0,0,0,0,0,0,0,0,0,0,0,0,0,0,0,0,0,0,0,0,0,0,0,0,0,0,0,0,0,0,0,0,0,0,0,0,0,0,0,0,0,0,0,0,0,0,0,0,0,0,0,0,0,0],"id":15,"left_children":[1,3,5,7,9,11,13,15,17,19,21,23,25,27,29,31,33,35,-1,37,39,41,43,45,47,49,51,53,55,57,59,-1,-1,61,63,65,-1,67,-1,69,71,73,75,77,79,81,83,85,87,89,91,93,95,97,99,101,103,105,107,109,111,-1,-1,-1,-1,-1,-1,-1,-1,-1,-1,-1,-1,-1,-1,-1,-1,-1,-1,-1,-1,-1,-1,-1,-1,-1,-1,-1,-1,-1,-1,-1,-1,-1,-1,-1,-1,-1,-1,-1,-1,-1,-1,-1,-1,-1,-1,-1,-1,-1,-1,-1,-1],"loss_changes":[2.8753666E4,5.0299023E2,1.294833E3,1.9445312E1,3.6660828E2,7.9083624E2,3.63875E2,1.3537109E1,4.296588E1,5.894275E1,1.7115967E2,7.9545184E2,2.7098474E2,3.6850586E1,4.911245E2,4.92544E0,7.171875E0,3.5218674E1,0E0,1.741446E1,9.393547E1,1.1012927E2,3.0187042E1,4.1130573E2,3.6171658E2,2.5606195E2,2.6764893E1,1.8574947E2,4.645508E0,3.6199573E2,2.6152295E2,0E0,0E0,2.6054688E0,1.1760636E1,2.5847061E1,0E0,4.702881E0,0E0,7.1445847E-1,1.0317883E1,1.0094717E2,8.0337524E-2,4.8448486E0,7.6051908E0,1.9901672E1,5.217892E2,2.3758173E2,2.9894852E2,6.6118393E0,6.571503E1,6.2374104E1,2.017456E0,1.2810818E2,1.2640686E0,1.8037109E0,7.254794E1,4.452103E2,3.1683862E2,4.0506985E2,4.8484863E1,0E0,0E0,0E0,0E0,0E0,0E0,0E0,0E0,0E0,0E0,0E0,0E0,0E0,0E0,0E0,0E0,0E0,0E0,0E0,0E0,0E0,0E0,0E0,0E0,0E0,0E0,0E0,0E0,0E0,0E0,0E0,0E0,0E0,0E0,0E0,0E0,0E0,0E0,0E0,0E0,0E0,0E0,0E0,0E0,0E0,0E0,0E0,0E0,0E0,0E0,0E0,0E0],"parents":[2147483647,0,0,1,1,2,2,3,3,4,4,5,5,6,6,7,7,8,8,9,9,10,10,11,11,12,12,13,13,14,14,15,15,16,16,17,17,19,19,20,20,21,21,22,22,23,23,24,24,25,25,26,26,27,27,28,28,29,29,30,30,33,33,34,34,35,35,37,37,39,39,40,40,41,41,42,42,43,43,44,44,45,45,46,46,47,47,48,48,49,49,50,50,51,51,52,52,53,53,54,54,55,55,56,56,57,57,58,58,59,59,60,60],"right_children":[2,4,6,8,10,12,14,16,18,20,22,24,26,28,30,32,34,36,-1,38,40,42,44,46,48,50,52,54,56,58,60,-1,-1,62,64,66,-1,68,-1,70,72,74,76,78,80,82,84,86,88,90,92,94,96,98,100,102,104,106,108,110,112,-1,-1,-1,-1,-1,-1,-1,-1,-1,-1,-1,-1,-1,-1,-1,-1,-1,-1,-1,-1,-1,-1,-1,-1,-1,-1,-1,-1,-1,-1,-1,-1,-1,-1,-1,-1,-1,-1,-1,-1,-1,-1,-1,-1,-1,-1,-1,-1,-1,-1,-1,-1],"split_conditions":[-1.8397725E0,-1.6280909E0,-4.243399E-1,5.354463E-1,-1.0993724E0,1.1009372E0,8.415521E-1,-1.3043712E0,-4.5369232E-1,2.5705385E-1,5.1558024E-1,7.4000096E-1,-1.236947E0,-1.4624512E0,-6.350888E-1,7.5602236E3,1.8535149E-1,1.528466E0,-1.4304046E-1,1.2599896E0,3.818584E-1,-2.6153898E-1,1.2657853E0,-2.4660125E-1,1.0022942E0,-5.581767E-1,-1.705822E0,-2.68808E-1,7.8730685E-1,5.873509E-1,9.1314095E-1,5.818547E-2,-1.5012579E-1,-1.6754173E-1,2.2152174E0,9.1833664E4,-1.8953748E-1,-1.1440941E0,-1.3294634E-1,-1.3421578E0,1.6285762E0,5.2577287E-1,-2.0741655E-1,-1.5789782E0,1.647E3,-1.8068749E0,-6.741123E-1,-1.9102618E-1,-4.121091E-1,-1.072085E0,1.1236534E0,1.3111858E0,-1.0196848E0,-7.578722E-1,-2.5550488E-1,7.6516086E-1,-1.7530428E0,-1.0213057E0,2.0087704E-1,6.004278E-2,-1.072085E0,-2.5831524E-2,1.0772016E-1,-1.270008E-1,9.372427E-2,9.549953E-2,-1.9821867E-1,-6.293116E-2,1.06543854E-1,-3.4906495E-2,-1.3860807E-1,-1.1945355E-1,1.06241785E-1,8.294653E-2,-9.807903E-2,-4.2602323E-2,-1.2269423E-1,-5.01596E-2,-1.3906984E-1,9.6026145E-2,-9.5359854E-2,-3.1357072E-3,-1.2988207E-1,-1.1540361E-1,3.63509E-2,-2.9854584E-2,8.524771E-2,2.7547702E-1,-6.0192574E-2,2.4190558E-2,-1.2153727E-1,1.8824366E-1,-1.1699649E-1,-1.1863966E-1,9.8357186E-2,-9.19553E-2,-1.18462734E-1,1.8697564E-1,-1.23621814E-1,-2.327367E-2,-1.1936456E-1,-1.1707749E-1,-1.0510092E-1,9.458508E-2,-1.2006563E-1,2.6112814E-2,-1.1200785E-1,1.22250475E-1,-1.437071E-1,-1.18580416E-1,1.2239239E-1,-3.3150874E-2,-1.1441578E-1],"split_indices":[14,10,14,7,12,3,4,24,12,7,15,4,10,8,12,0,12,13,0,16,29,10,29,29,1,1,19,14,23,20,4,0,0,11,4,0,0,15,0,9,4,5,10,17,0,10,2,23,20,17,9,2,10,12,14,4,13,19,13,16,17,0,0,0,0,0,0,0,0,0,0,0,0,0,0,0,0,0,0,0,0,0,0,0,0,0,0,0,0,0,0,0,0,0,0,0,0,0,0,0,0,0,0,0,0,0,0,0,0,0,0,0,0],"split_type":[0,0,0,0,0,0,0,0,0,0,0,0,0,0,0,0,0,0,0,0,0,0,0,0,0,0,0,0,0,0,0,0,0,0,0,0,0,0,0,0,0,0,0,0,0,0,0,0,0,0,0,0,0,0,0,0,0,0,0,0,0,0,0,0,0,0,0,0,0,0,0,0,0,0,0,0,0,0,0,0,0,0,0,0,0,0,0,0,0,0,0,0,0,0,0,0,0,0,0,0,0,0,0,0,0,0,0,0,0,0,0,0,0],"sum_hessian":[3.236738E4,1.5258828E4,1.7108553E4,1.4410634E4,8.4819446E2,4.743611E3,1.2364941E4,1.4208355E4,2.0227875E2,4.562614E2,3.9193304E2,3.2301238E3,1.5134873E3,8.311755E3,4.0531865E3,3.1785214E0,1.4205177E4,1.9452841E2,7.7503486E0,3.8485754E2,7.140387E1,2.3573897E2,1.5619409E2,1.5762284E3,1.6538953E3,1.3744461E2,1.3760427E3,2.937615E2,8.017993E3,1.2537457E3,2.799441E3,1.1293035E0,2.0492182E0,1.4196804E4,8.372821E0,1.9085721E2,3.6711996E0,3.8258813E2,2.2694092E0,2.8097996E1,4.3305874E1,1.8678296E2,4.8955997E1,1.4723752E2,8.956576E0,6.262816E2,9.499467E2,1.1890443E3,4.6485098E2,6.3242474E1,7.420214E1,5.772564E1,1.318317E3,5.705757E1,2.3670395E2,7.854608E3,1.6338512E2,9.653675E2,2.883782E2,2.7977905E2,2.5196619E3,1.1117734E0,1.4195692E4,2.835526E0,5.5372944E0,1.8871405E2,2.14316E0,1.0377783E0,3.8155035E2,1.4971662E0,2.660083E1,1.3247309E0,4.1981144E1,1.4890999E2,3.787297E1,1.4904121E0,4.7465584E1,7.942688E0,1.3929483E2,7.0455246E0,1.9110522E0,1.2694556E1,6.135871E2,3.7085028E2,5.7909644E2,2.1943199E2,9.6961237E2,2.7256538E1,4.3759445E2,2.961198E0,6.0281277E1,6.700447E1,7.197666E0,3.8757195E1,1.8968441E1,4.9276752E1,1.2690403E3,3.7679176E1,1.9378397E1,1.9239651E0,2.3477998E2,7.628255E3,2.2635309E2,1.688448E1,1.4650064E2,3.9303915E2,5.723283E2,2.3392111E2,5.4457096E1,1.5378333E2,1.2599571E2,7.670963E1,2.4429521E3],"tree_param":{"num_deleted":"0","num_feature":"30","num_nodes":"113","size_leaf_vector":"1"}},{"base_weights":[2.9018452E-2,1.0179291E0,-8.329843E-1,1.0626192E0,2.7116808E-1,-3.9499193E-1,-1.005787E0,1.0673839E0,7.309833E-1,8.749036E-1,-4.1369072E-1,-1.2806977E-1,-9.896761E-1,-1.1311461E0,-7.54262E-1,-7.5718427E-1,1.0678778E0,1.0414169E0,3.2356482E-2,1.0300778E0,4.836452E-2,1.026847E-1,-1.1977638E0,-9.4790375E-1,1.3864334E-1,3.0384943E-1,-1.1236783E0,-7.74311E-1,-1.1442915E0,-2.3061176E-1,-9.7954464E-1,5.6583412E-2,-1.4171429E-1,1.0684423E0,1.25081E-1,-1.6791537E-2,1.0540421E0,-1.9717425E-1,9.577862E-1,1.0481211E0,-1.2607847E-1,-1.2964805E0,9.4749075E-1,4.467325E-1,-1.1455146E0,-1.3019712E0,4.8025844E-1,-1.1910391E0,1.6924736E-1,7.388464E-1,-2.61307E-1,-1.1115564E0,1.4529922E0,-4.561208E-1,-1.1527313E0,7.4913603E-1,-1.164221E0,-1.14836E0,-9.451934E-1,8.080697E-2,-1.217557E0,-7.673755E-2,-1.0868857E0,-2.4331741E-2,1.068575E-1,-1.2024861E-1,9.180274E-2,1.0711493E-1,6.988714E-3,-1.169678E-1,1.0687268E-1,-5.990994E-2,1.0546968E-1,-1.3526739E-1,-4.1296724E-2,-1.1474192E-1,1.0443461E-1,7.3078625E-2,-1.2838343E-1,-3.9337043E-2,-1.20035365E-1,-1.34697E-1,-4.2575046E-2,9.427842E-2,-9.220777E-2,-2.513059E-2,-1.2091496E-1,-1.292914E-1,8.492522E-2,9.7305395E-2,-9.0309745E-3,-1.6086644E-1,-1.0402637E-2,2.2467596E-2,-1.18469834E-1,1.7317986E-1,-1.1307418E-1,-1.1607684E-1,9.4897635E-2,-8.664333E-2,-1.16355896E-1,-1.21496856E-1,1.7146042E-1,-2.1917043E-2,-1.1714846E-1,-1.0109959E-1,-1.15172915E-1,8.416686E-2,-1.1769646E-1,4.1669466E-2,-8.872442E-2,-1.2331956E-2,-1.2449553E-1,-1.18091725E-1,1.051811E-1,-8.0679886E-2,-1.1677344E-1],"categories":[],"categories_nodes":[],"categories_segments":[],"categories_sizes":[],"default_left":[0,0,0,0,0,0,0,0,0,0,0,0,0,0,0,0,0,0,0,0,0,0,0,0,0,0,0,0,0,0,0,0,0,0,0,0,0,0,0,0,0,0,0,0,0,0,0,0,0,0,0,0,0,0,0,0,0,0,0,0,0,0,0,0,0,0,0,0,0,0,0,0,0,0,0,0,0,0,0,0,0,0,0,0,0,0,0,0,0,0,0,0,0,0,0,0,0,0,0,0,0,0,0,0,0,0,0,0,0,0,0,0,0,0,0,0,0],"id":16,"left_children":[1,3,5,7,9,11,13,15,17,19,21,23,25,27,29,31,33,35,37,39,41,43,45,47,49,51,53,55,57,59,61,-1,-1,63,65,-1,67,-1,69,71,-1,73,75,77,79,81,83,85,87,89,91,93,95,97,99,101,103,105,107,109,111,113,115,-1,-1,-1,-1,-1,-1,-1,-1,-1,-1,-1,-1,-1,-1,-1,-1,-1,-1,-1,-1,-1,-1,-1,-1,-1,-1,-1,-1,-1,-1,-1,-1,-1,-1,-1,-1,-1,-1,-1,-1,-1,-1,-1,-1,-1,-1,-1,-1,-1,-1,-1,-1,-1,-1],"loss_changes":[2.5500365E4,4.6465137E2,1.2092793E3,1.9989258E1,3.2618256E2,7.1789307E2,3.6050293E2,1.2482422E1,4.1032227E1,5.3706696E1,1.4987799E2,6.830563E2,2.4321594E2,3.4981445E1,4.4982007E2,4.3739276E0,6.7626953E0,2.17807E0,1.11841866E2,1.5905579E1,8.260521E1,9.667635E1,2.6321045E1,2.0847345E2,5.661001E2,2.1682814E2,2.4102783E1,1.6408827E2,4.8867188E0,3.5320462E2,2.583789E2,0E0,0E0,2.5117188E0,1.0457394E1,0E0,2.1113281E0,0E0,1.0981297E1,4.4296875E0,0E0,8.011284E-1,9.499271E0,8.758473E1,1.5351639E0,4.8923645E0,6.916141E0,1.0415649E1,1.3823717E2,1.8320868E2,2.9978842E2,6.1161575E0,5.4876328E1,5.5176857E1,2.762085E0,1.09416916E2,1.2477417E0,2.1777344E0,6.447569E1,2.8463422E2,8.10968E0,3.557475E2,5.303369E1,0E0,0E0,0E0,0E0,0E0,0E0,0E0,0E0,0E0,0E0,0E0,0E0,0E0,0E0,0E0,0E0,0E0,0E0,0E0,0E0,0E0,0E0,0E0,0E0,0E0,0E0,0E0,0E0,0E0,0E0,0E0,0E0,0E0,0E0,0E0,0E0,0E0,0E0,0E0,0E0,0E0,0E0,0E0,0E0,0E0,0E0,0E0,0E0,0E0,0E0,0E0,0E0,0E0,0E0],"parents":[2147483647,0,0,1,1,2,2,3,3,4,4,5,5,6,6,7,7,8,8,9,9,10,10,11,11,12,12,13,13,14,14,15,15,16,16,17,17,18,18,19,19,20,20,21,21,22,22,23,23,24,24,25,25,26,26,27,27,28,28,29,29,30,30,33,33,34,34,36,36,38,38,39,39,41,41,42,42,43,43,44,44,45,45,46,46,47,47,48,48,49,49,50,50,51,51,52,52,53,53,54,54,55,55,56,56,57,57,58,58,59,59,60,60,61,61,62,62],"right_children":[2,4,6,8,10,12,14,16,18,20,22,24,26,28,30,32,34,36,38,40,42,44,46,48,50,52,54,56,58,60,62,-1,-1,64,66,-1,68,-1,70,72,-1,74,76,78,80,82,84,86,88,90,92,94,96,98,100,102,104,106,108,110,112,114,116,-1,-1,-1,-1,-1,-1,-1,-1,-1,-1,-1,-1,-1,-1,-1,-1,-1,-1,-1,-1,-1,-1,-1,-1,-1,-1,-1,-1,-1,-1,-1,-1,-1,-1,-1,-1,-1,-1,-1,-1,-1,-1,-1,-1,-1,-1,-1,-1,-1,-1,-1,-1,-1,-1],"split_conditions":[-1.8397725E0,-1.6280909E0,-4.243399E-1,5.354463E-1,-1.0993724E0,1.1009372E0,8.415521E-1,-1.3043712E0,-3.802641E0,2.5705385E-1,5.1558024E-1,-2.1936233E-1,-1.236947E0,-1.4624512E0,-7.2479856E-1,7.5602236E3,1.8535149E-1,5.717951E-1,-2.9380757E-1,1.2599896E0,3.818584E-1,-3.0453774E-1,1.2657853E0,1.174751E0,-3.6795035E-1,-5.581767E-1,-1.705822E0,-2.68808E-1,7.8730685E-1,1.5516818E0,9.1314095E-1,5.6583412E-2,-1.4171429E-1,-1.6754173E-1,2.2152174E0,-1.6791537E-2,-1.8068749E0,-1.9717425E-1,1.3556439E-1,-1.1440941E0,-1.2607847E-1,5.0531883E-2,1.6285762E0,7.3785377E-1,-2.0741655E-1,7.3626006E-1,1.647E3,-1.9859388E0,-5.9547186E-1,8.9290816E-1,-9.7255474E-1,-1.072085E0,1.1236534E0,1.3111858E0,-1.0196848E0,9.5564866E-1,-2.5550488E-1,-1.072085E0,-1.7530428E0,9.064872E-1,-2.8352484E-1,9.090208E-1,-5.5978663E-2,-2.4331741E-2,1.068575E-1,-1.2024861E-1,9.180274E-2,1.0711493E-1,6.988714E-3,-1.169678E-1,1.0687268E-1,-5.990994E-2,1.0546968E-1,-1.3526739E-1,-4.1296724E-2,-1.1474192E-1,1.0443461E-1,7.3078625E-2,-1.2838343E-1,-3.9337043E-2,-1.20035365E-1,-1.34697E-1,-4.2575046E-2,9.427842E-2,-9.220777E-2,-2.513059E-2,-1.2091496E-1,-1.292914E-1,8.492522E-2,9.7305395E-2,-9.0309745E-3,-1.6086644E-1,-1.0402637E-2,2.2467596E-2,-1.18469834E-1,1.7317986E-1,-1.1307418E-1,-1.1607684E-1,9.4897635E-2,-8.664333E-2,-1.16355896E-1,-1.21496856E-1,1.7146042E-1,-2.1917043E-2,-1.1714846E-1,-1.0109959E-1,